svm_type c_svc
kernel_type rbf
gamma 0.0105263
nr_class 2
total_sv 1709
rho 0.513645
label -1 1
nr_sv 998 711
SV
0.4742725342158015 1:1 36:1 70:1 72:40 77:255 79:1 81:1482 82:1476 85:99 88:100 89:100 90:100 
0.04759846932990155 1:1 36:1 70:1 72:40 77:255 79:1 81:923 82:919 85:99 88:100 89:100 90:100 
0.08739174972718174 1:1 36:1 70:1 72:40 77:255 79:1 81:1825 82:1818 85:99 88:100 89:100 90:100 
0.2455605562201768 1:1 36:1 70:1 72:40 77:255 79:1 81:48 82:48 85:100 88:100 89:100 90:100 
0.002892547481515375 1:1 36:1 70:1 72:40 77:255 79:1 81:341 82:339 85:99 88:100 89:99 90:99 91:1 
0.04008722878367562 1:1 36:1 70:1 72:40 77:255 79:1 81:1128 82:1122 85:99 88:100 89:99 90:99 91:1 
0.4786969090509242 1:1 36:1 70:1 72:40 77:255 79:1 81:1553 82:1547 85:99 88:100 89:100 90:100 
0.0645145389516868 1:1 36:1 70:1 72:40 77:255 79:1 81:1535 82:1529 85:99 88:100 89:100 90:100 
0.2417347948815151 1:1 36:1 70:1 72:40 77:255 79:1 81:349 82:347 85:99 88:100 89:99 90:99 91:1 
0.5181979545140173 1:1 36:1 70:1 72:40 77:255 79:1 81:1444 82:1438 85:99 88:100 89:98 90:98 91:2 
0.009450469652188131 1:1 36:1 70:1 72:40 77:255 79:1 81:1205 82:1199 85:99 88:100 89:100 90:100 
0.06863173736080015 1:1 36:1 70:1 72:40 77:255 79:1 81:371 82:368 85:99 88:100 89:98 90:98 91:2 
0.0302189939772339 1:1 36:1 70:1 72:40 77:255 79:1 81:494 82:490 85:99 88:100 89:100 90:100 
0.005028055577068724 1:1 36:1 70:1 72:40 77:255 79:1 81:1822 82:1815 85:99 88:100 89:100 90:100 
0.006223842579300394 1:1 36:1 60:1 72:40 77:255 79:1 81:791 82:788 85:99 88:100 89:100 90:100 
0.3847881148081878 1:1 36:1 70:1 72:40 77:255 79:1 81:769 82:765 85:99 88:100 89:100 90:100 
0.2869977806616835 1:1 36:1 70:1 72:40 77:255 79:1 81:569 82:565 85:99 88:100 89:100 90:100 
0.4388461487419977 1:1 36:1 70:1 72:40 77:255 79:1 81:314 82:313 85:99 88:100 89:100 90:100 
0.6062603641379084 1:1 36:1 70:1 72:40 77:255 79:1 81:951 82:946 85:99 88:100 89:99 90:99 91:1 
0.5172264106176466 1:1 36:1 70:1 72:40 77:255 79:1 81:1183 82:1177 85:99 88:100 89:100 90:100 
0.6070244332209662 1:1 36:1 70:1 72:40 77:255 79:1 81:1788 82:1781 85:99 88:100 89:100 90:100 
0.4571064722369926 1:1 36:1 70:1 72:40 77:255 79:1 81:870 82:866 85:99 88:100 89:100 90:100 
0.7555974974836344 1:1 36:1 70:1 72:20 77:255 81:2847 82:2831 85:99 88:100 89:100 90:100 
0.001348069602052987 1:1 36:1 70:1 72:40 77:255 79:1 81:265 82:264 85:99 88:100 89:100 90:100 
0.7057191467135944 1:1 36:1 70:1 72:40 77:255 79:1 81:134 82:134 85:100 88:100 89:100 90:100 
0.4505616672631462 1:1 36:1 70:1 72:40 77:255 79:1 81:1229 82:1223 85:99 88:100 89:100 90:100 
0.6001238777438692 1:1 36:1 70:1 72:40 77:255 79:1 81:1087 82:1081 85:99 88:100 89:99 90:99 91:1 
0.0238332704525905 1:1 36:1 70:1 72:40 77:255 79:1 81:1147 82:1141 85:99 88:100 89:99 90:99 91:1 
0.1237971493942456 1:1 36:1 70:1 72:40 77:255 79:1 81:1586 82:1580 85:99 88:100 89:100 90:100 
0.5844024744230397 1:1 36:1 70:1 72:40 77:255 79:1 81:702 82:698 85:99 88:100 89:100 90:100 
0.5544210456836215 1:1 36:1 70:1 72:40 77:255 79:1 81:326 82:324 85:99 88:100 89:99 90:99 91:1 
0.046280139490082 1:1 36:1 70:1 72:40 77:255 79:1 81:578 82:574 85:99 88:100 89:100 90:100 
0.001673373853121423 1:1 36:1 70:1 72:40 77:255 79:1 81:1604 82:1598 85:99 88:100 89:100 90:100 
0.2176766061856079 1:1 36:1 70:1 72:40 77:255 79:1 81:1090 82:1084 85:99 88:100 89:99 90:99 91:1 
0.1165436927459455 1:1 36:1 70:1 72:40 77:255 79:1 81:1757 82:1750 85:99 88:100 89:100 90:100 
0.2276776680773221 1:1 36:1 70:1 72:40 77:255 79:1 81:167 82:166 85:99 88:100 89:99 90:99 91:1 
0.4501211929522013 1:1 36:1 70:1 72:40 77:255 79:1 81:1470 82:1464 85:99 88:100 89:100 90:100 
0.4662940323523518 1:1 36:1 70:1 72:40 77:255 79:1 81:1692 82:1685 85:99 88:100 89:100 90:100 
0.3709998672883132 1:1 36:1 70:1 72:40 77:255 79:1 81:715 82:711 85:99 88:100 89:100 90:100 
0.0001251576533110939 1:1 36:1 70:1 72:40 77:255 79:1 81:1058 82:1052 85:99 88:100 89:99 90:99 91:1 
0.1044141144051863 1:1 36:1 60:1 72:40 77:255 79:1 81:738 82:735 85:99 88:100 89:100 90:100 
0.3563457426145189 1:1 36:1 70:1 72:40 77:255 79:1 81:27 82:27 85:100 88:100 89:100 90:100 
0.5989188359550296 1:1 36:1 70:1 72:40 77:255 79:1 81:1766 82:1759 85:99 88:100 89:100 90:100 
0.4391137307464376 1:1 36:1 70:1 72:40 77:255 79:1 81:945 82:940 85:99 88:100 89:99 90:99 91:1 
0.2642148828226571 1:1 36:1 70:1 72:20 77:255 81:3068 82:3050 85:99 88:100 89:100 90:100 
0.03292853403110047 1:1 36:1 60:1 72:40 77:255 79:1 81:785 82:782 85:99 88:100 89:100 90:100 
0.8358641598635492 1:1 36:1 70:1 72:40 77:255 79:1 81:1965 82:1956 85:99 88:100 89:99 90:99 91:1 
0.01266068502216412 1:1 36:1 70:1 72:40 77:255 79:1 81:1075 82:1069 85:99 88:100 89:99 90:99 91:1 
0.6487073138935499 1:1 36:1 60:1 72:40 77:255 79:1 81:810 82:807 85:99 88:100 89:100 90:100 
0.08576836749113775 1:1 36:1 70:1 72:40 77:255 79:1 81:1729 82:1722 85:99 88:100 89:100 90:100 
0.001430262446416425 1:1 36:1 70:1 72:40 77:255 79:1 81:766 82:762 85:99 88:100 89:100 90:100 
0.08277358080219936 1:1 36:1 70:1 72:40 77:255 79:1 81:916 82:912 85:99 88:100 89:100 90:100 
0.457257257594108 1:1 36:1 70:1 72:40 77:255 79:1 81:1464 82:1458 85:99 88:100 89:99 90:99 91:1 
0.04604830659600464 1:1 36:1 60:1 72:40 77:255 79:1 81:800 82:797 85:99 88:100 89:100 90:100 
0.7660989276661507 1:1 36:1 70:1 72:40 77:255 79:1 81:114 82:114 85:100 88:100 89:100 90:100 
0.0005877091972136487 1:1 36:1 70:1 72:40 77:255 79:1 81:408 82:404 85:99 88:100 89:97 90:97 91:3 
0.2180384783703714 1:1 36:1 70:1 72:40 77:255 79:1 81:815 82:811 85:99 88:100 89:100 90:100 
0.1971140113399979 1:1 36:1 70:1 72:40 77:255 79:1 81:338 82:336 85:99 88:100 89:99 90:99 91:1 
0.5624862178941997 1:1 36:1 70:1 72:40 77:255 79:1 81:672 82:668 85:99 88:100 89:100 90:100 
0.1581200878960732 1:1 36:1 70:1 72:40 77:255 79:1 81:1033 82:1027 85:99 88:100 89:99 90:99 91:1 
0.02666804026511747 1:1 36:1 70:1 72:40 77:255 79:1 81:323 82:321 85:99 88:100 89:99 90:99 91:1 
0.08616793445223329 1:1 36:1 70:1 72:40 77:255 79:1 81:177 82:176 85:99 88:100 89:99 90:99 91:1 
0.007619475123688796 1:1 36:1 70:1 72:40 77:255 79:1 81:550 82:546 85:99 88:100 89:100 90:100 
0.03513469719129889 1:1 36:1 70:1 72:20 77:255 81:2842 82:2826 85:99 88:100 89:100 90:100 
0.1165844871268998 1:1 36:1 70:1 72:40 77:255 79:1 81:1244 82:1238 85:99 88:100 89:100 90:100 
0.07002008231452629 1:1 36:1 70:1 72:40 77:255 79:1 81:986 82:981 85:99 88:100 89:99 90:99 91:1 
0.04737179302668616 1:1 36:1 70:1 72:40 77:255 79:1 81:1052 82:1046 85:99 88:100 89:99 90:99 91:1 
0.0884313921801934 1:1 36:1 70:1 72:40 77:255 79:1 81:1214 82:1208 85:99 88:100 89:100 90:100 
0.06721884566198708 1:1 36:1 70:1 72:40 77:255 79:1 81:1038 82:1032 85:99 88:100 89:99 90:99 91:1 
0.1457866258961156 1:1 36:1 70:1 72:40 77:255 79:1 81:1646 82:1639 85:99 88:100 89:99 90:99 91:1 
0.1611808117625388 1:1 36:1 70:1 72:40 77:255 79:1 81:1394 82:1388 85:99 88:100 89:100 90:100 
0.1422938108231956 1:1 36:1 70:1 72:40 77:255 79:1 81:908 82:904 85:99 88:100 89:100 90:100 
0.0006576605164548832 1:1 36:1 70:1 72:40 77:255 79:1 81:859 82:855 85:99 88:100 89:100 90:100 
0.4518439092261806 1:1 36:1 70:1 72:40 77:255 79:1 81:1226 82:1220 85:99 88:100 89:100 90:100 
0.0007510648517249341 1:1 36:1 70:1 72:40 77:255 79:1 81:648 82:644 85:99 88:100 89:100 90:100 
0.1554131477020726 1:1 36:1 70:1 72:40 77:255 79:1 81:646 82:642 85:99 88:100 89:100 90:100 
0.1430798166636814 1:1 36:1 70:1 72:40 77:255 79:1 81:1611 82:1605 85:99 88:100 89:100 90:100 
0.01206812327336336 1:1 36:1 70:1 72:40 77:255 79:1 81:1523 82:1517 85:99 88:100 89:100 90:100 
0.01710997008543219 1:1 36:1 70:1 72:40 77:255 79:1 81:1202 82:1196 85:99 88:100 89:100 90:100 
0.1129296225483439 1:1 36:1 70:1 72:40 77:255 79:1 81:389 82:385 85:98 86:1 87:1 88:100 89:97 90:97 91:3 
0.04400333458916385 1:1 36:1 70:1 72:40 77:255 79:1 81:534 82:530 85:99 88:100 89:100 90:100 
1 1:1 55:1 70:1 72:40 77:255 79:1 81:368 86:100 88:100 91:100 
0.005410995563781116 1:1 36:1 70:1 72:40 77:255 79:1 81:645 82:641 85:99 88:100 89:100 90:100 
0.4620575050255986 1:1 36:1 60:1 72:40 77:255 79:1 81:788 82:785 85:99 88:100 89:100 90:100 
0.01835965081029785 1:1 36:1 70:1 72:40 77:255 79:1 81:1363 82:1357 85:99 88:100 89:100 90:100 
0.1624456992999708 1:1 36:1 60:1 72:40 77:255 79:1 81:767 82:764 85:99 88:100 89:100 90:100 
0.4644197719000883 1:1 36:1 70:1 72:40 77:255 79:1 81:1065 82:1059 85:99 88:100 89:99 90:99 91:1 
0.03552134959707363 1:1 36:1 70:1 72:40 77:255 79:1 81:1105 82:1099 85:99 88:100 89:99 90:99 91:1 
0.4941657040726153 1:1 36:1 70:1 72:40 77:255 79:1 81:208 82:207 85:99 88:100 89:99 90:99 91:1 
0.5344595684158976 1:1 36:1 70:1 72:40 77:255 79:1 81:453 82:449 85:99 88:100 89:98 90:98 91:2 
0.0560321562862537 1:1 36:1 70:1 72:40 77:255 79:1 81:1503 82:1497 85:99 88:100 89:100 90:100 
0.07433807831960133 1:1 36:1 70:1 72:40 77:255 79:1 81:1372 82:1366 85:99 88:100 89:100 90:100 
0.7750196478052143 1:1 36:1 70:1 72:40 77:255 79:1 81:1314 82:1308 85:99 88:100 89:100 90:100 
0.01829190090253475 1:1 36:1 70:1 72:40 77:255 79:1 81:864 82:860 85:99 88:100 89:100 90:100 
0.2908610650466874 1:1 36:1 70:1 72:40 77:255 79:1 81:594 82:590 85:99 88:100 89:100 90:100 
0.001955113273684786 1:1 36:1 70:1 72:40 77:255 79:1 81:388 82:384 85:98 86:1 87:1 88:100 89:97 90:97 91:3 
0.01176363736678108 1:1 36:1 70:1 72:40 77:255 79:1 81:1544 82:1538 85:99 88:100 89:100 90:100 
0.662998994853893 1:1 36:1 70:1 72:40 77:255 79:1 81:1884 82:1877 85:99 88:100 89:100 90:100 
0.0541297430774736 1:1 36:1 70:1 72:40 77:255 79:1 81:1748 82:1741 85:99 88:100 89:100 90:100 
0.005112646843455738 1:1 36:1 70:1 72:40 77:255 79:1 81:1550 82:1544 85:99 88:100 89:100 90:100 
0.9517523863082332 1:1 36:1 70:1 72:20 77:255 81:2942 82:2926 85:99 88:100 89:100 90:100 
0.00433393059333634 1:1 36:1 70:1 72:40 77:255 79:1 81:1196 82:1190 85:99 88:100 89:100 90:100 
0.0392035063368936 1:1 36:1 70:1 72:40 77:255 79:1 81:508 82:504 85:99 88:100 89:100 90:100 
0.04166133453331834 1:1 36:1 70:1 72:40 77:255 79:1 81:699 82:695 85:99 88:100 89:100 90:100 
0.01271223734918324 1:1 36:1 70:1 72:40 77:255 79:1 81:1627 82:1620 85:99 88:100 89:99 90:99 91:1 
0.08523016936047324 1:1 36:1 70:1 72:40 77:255 79:1 81:1221 82:1215 85:99 88:100 89:100 90:100 
0.6554619922657312 1:1 36:1 70:1 72:40 77:255 79:1 81:203 82:202 85:99 88:100 89:99 90:99 91:1 
0.3517430601314778 1:1 36:1 70:1 72:40 77:255 79:1 81:618 82:614 85:99 88:100 89:100 90:100 
0.5884736420856311 1:1 36:1 70:1 72:40 77:255 79:1 81:1417 82:1411 85:99 88:100 89:100 90:100 
0.5456241348677803 1:1 36:1 70:1 72:40 77:255 79:1 81:650 82:646 85:99 88:100 89:100 90:100 
0.6565754113061546 1:1 36:1 70:1 72:40 77:255 79:1 81:1125 82:1119 85:99 88:100 89:99 90:99 91:1 
0.2363820284279592 1:1 36:1 70:1 72:40 77:255 79:1 81:239 82:238 85:99 88:100 89:99 90:99 91:1 
0.009242250293366743 1:1 36:1 70:1 72:40 77:255 79:1 81:1767 82:1760 85:99 88:100 89:100 90:100 
0.1134517419442633 1:1 36:1 70:1 72:40 77:255 79:1 81:730 82:726 85:99 88:100 89:100 90:100 
0.7419335529846907 1:1 36:1 70:1 72:40 77:255 79:1 81:1138 82:1132 85:99 88:100 89:99 90:99 91:1 
0.005110947755233197 1:1 36:1 70:1 72:40 77:255 79:1 81:840 82:836 85:99 88:100 89:100 90:100 
0.01493875787730348 1:1 36:1 70:1 72:40 77:255 79:1 81:1290 82:1284 85:99 88:100 89:100 90:100 
0.2580527830720294 1:1 36:1 70:1 72:40 77:255 79:1 81:1238 82:1232 85:99 88:100 89:100 90:100 
0.04366845249707928 1:1 36:1 70:1 72:40 77:255 79:1 81:210 82:209 85:99 88:100 89:99 90:99 91:1 
0.7602379832184571 1:1 36:1 70:1 72:40 77:255 79:1 81:1321 82:1315 85:99 88:100 89:100 90:100 
1 1:1 36:1 70:1 72:20 77:255 81:2871 82:2855 85:99 88:100 89:99 90:99 91:1 
0.5545611737917242 1:1 36:1 70:1 72:40 77:255 79:1 81:1805 82:1798 85:99 88:100 89:100 90:100 
0.6032319948449306 1:1 36:1 70:1 72:40 77:255 79:1 81:192 82:191 85:99 88:100 89:99 90:99 91:1 
0.2043153891292146 1:1 36:1 70:1 72:40 77:255 79:1 81:609 82:605 85:99 88:100 89:100 90:100 
0.5214959972700125 1:1 36:1 70:1 72:40 77:255 79:1 81:1622 82:1615 85:99 88:100 89:99 90:99 91:1 
0.02493543636388991 1:1 36:1 70:1 72:40 77:255 79:1 81:624 82:620 85:99 88:100 89:100 90:100 
0.001654690484272161 1:1 36:1 70:1 72:40 77:255 79:1 81:910 82:906 85:99 88:100 89:100 90:100 
0.1948302759693262 1:1 36:1 70:1 72:40 77:255 79:1 81:1083 82:1077 85:99 88:100 89:99 90:99 91:1 
0.4270214115583928 1:1 36:1 70:1 72:40 77:255 79:1 81:762 82:758 85:99 88:100 89:100 90:100 
0.3389884413113055 1:1 36:1 70:1 72:40 77:255 79:1 81:1021 82:1016 85:99 88:100 89:100 90:100 
0.0358636561472448 1:1 36:1 70:1 72:40 77:255 79:1 81:230 82:229 85:99 88:100 89:99 90:99 91:1 
0.1129976935988991 1:1 36:1 70:1 72:40 77:255 79:1 81:1361 82:1355 85:99 88:100 89:100 90:100 
0.1835911366302415 1:1 36:1 70:1 72:40 77:255 79:1 81:1463 82:1457 85:99 88:100 89:99 90:99 91:1 
1 1:1 36:1 70:1 72:40 77:255 79:1 81:1877 82:1870 85:99 88:100 89:100 90:100 
0.1314162930442347 1:1 36:1 70:1 72:40 77:255 79:1 81:29 82:29 85:100 88:100 89:100 90:100 
0.002810666878369445 1:1 36:1 70:1 72:40 77:255 79:1 81:427 82:423 85:99 88:100 89:98 90:98 91:2 
0.5030842259985242 1:1 36:1 70:1 72:40 77:255 79:1 81:1251 82:1245 85:99 88:100 89:100 90:100 
0.1872587464444311 1:1 36:1 70:1 72:40 77:255 79:1 81:1714 82:1707 85:99 88:100 89:100 90:100 
0.02019832196551112 1:1 36:1 70:1 72:40 77:255 79:1 81:1648 82:1641 85:99 88:100 89:99 90:99 91:1 
0.003843225541101928 1:1 36:1 70:1 72:40 77:255 79:1 81:765 82:761 85:99 88:100 89:100 90:100 
0.09639019145318033 1:1 36:1 70:1 72:40 77:255 79:1 81:1167 82:1161 85:99 88:100 89:99 90:99 91:1 
0.3716926218898333 1:1 36:1 70:1 72:40 77:255 79:1 81:1072 82:1066 85:99 88:100 89:99 90:99 91:1 
0.3843976598198762 1:1 36:1 70:1 72:40 77:255 79:1 81:2115 82:2105 85:99 88:100 89:100 90:100 
0.2429442833506287 1:1 36:1 70:1 72:40 77:255 79:1 81:1733 82:1726 85:99 88:100 89:100 90:100 
0.02630048300366278 1:1 36:1 70:1 72:40 77:255 79:1 81:536 82:532 85:99 88:100 89:100 90:100 
0.004292759883411545 1:1 36:1 70:1 72:40 77:255 79:1 81:112 82:112 85:100 88:100 89:100 90:100 
0.08175271650160648 1:1 36:1 70:1 72:40 77:255 79:1 81:716 82:712 85:99 88:100 89:100 90:100 
0.05410938251837815 1:1 36:1 70:1 72:40 77:255 79:1 81:1674 82:1667 85:99 88:100 89:100 90:100 
0.02576070984564533 1:1 36:1 70:1 72:40 77:255 79:1 81:1187 82:1181 85:99 88:100 89:100 90:100 
0.06294987680677022 1:1 36:1 70:1 72:40 77:255 79:1 81:824 82:820 85:99 88:100 89:100 90:100 
0.03158994438892446 1:1 36:1 70:1 72:40 77:255 79:1 81:1150 82:1144 85:99 88:100 89:99 90:99 91:1 
0.4552106575896376 1:1 36:1 70:1 72:40 77:255 79:1 81:385 82:381 85:98 86:1 87:1 88:100 89:97 90:97 91:3 
0.3686265787814784 1:1 36:1 70:1 72:20 77:255 81:3067 82:3049 85:99 88:100 89:100 90:100 
0.803121635303392 1:1 36:1 70:1 72:40 77:255 79:1 81:1438 82:1432 85:99 88:100 89:98 90:98 91:2 
0.02412429000388281 1:1 36:1 70:1 72:40 77:255 79:1 81:359 82:357 85:99 88:100 89:99 90:99 91:1 
0.6568763463681984 1:1 36:1 70:1 72:40 77:255 79:1 81:2065 82:2055 85:99 88:100 89:99 90:99 91:1 
0.0008980819597759514 1:1 36:1 70:1 72:40 77:255 79:1 81:439 82:435 85:99 88:100 89:98 90:98 91:2 
0.06630391718795244 1:1 36:1 70:1 72:40 77:255 79:1 81:1296 82:1290 85:99 88:100 89:100 90:100 
0.05912225397332475 1:1 36:1 70:1 72:40 77:255 79:1 81:1415 82:1409 85:99 88:100 89:100 90:100 
0.435888731964675 1:1 36:1 70:1 72:40 77:255 79:1 81:2059 82:2049 85:99 88:100 89:97 90:97 91:3 
0.02751295579010137 1:1 36:1 70:1 72:40 77:255 79:1 81:1115 82:1109 85:99 88:100 89:99 90:99 91:1 
0.1006098564927556 1:1 36:1 70:1 72:40 77:255 79:1 81:137 82:137 85:100 88:100 89:100 90:100 
0.03785573672447017 1:1 36:1 70:1 72:40 77:255 79:1 81:1039 82:1033 85:99 88:100 89:99 90:99 91:1 
0.5985050761226991 1:1 36:1 70:1 72:40 77:255 79:1 81:1016 82:1011 85:99 88:100 89:100 90:100 
0.5506336606068809 1:1 36:1 70:1 72:40 77:255 79:1 81:271 82:270 85:99 88:100 89:100 90:100 
0.5829989036353902 1:1 36:1 70:1 72:40 77:255 79:1 81:1212 82:1206 85:99 88:100 89:100 90:100 
0.0008734185580823153 1:1 36:1 70:1 72:40 77:255 79:1 81:501 82:497 85:99 88:100 89:100 90:100 
0.3096325546993107 1:1 36:1 70:1 72:40 77:255 79:1 81:421 82:417 85:99 88:100 89:98 90:98 91:2 
0.1539056661170068 1:1 36:1 70:1 72:40 77:255 79:1 81:103 82:103 85:100 88:100 89:100 90:100 
0.407127329594052 1:1 36:1 70:1 72:40 77:255 79:1 81:782 82:778 85:99 88:100 89:100 90:100 
0.07259249691254653 1:1 36:1 70:1 72:40 77:255 79:1 81:18 82:18 85:100 88:100 89:100 90:100 
0.02027425945098866 1:1 36:1 70:1 72:40 77:255 79:1 81:976 82:971 85:99 88:100 89:99 90:99 91:1 
0.577446655490828 1:1 36:1 70:1 72:40 77:255 79:1 81:1049 82:1043 85:99 88:100 89:99 90:99 91:1 
0.6210243870501676 1:1 36:1 70:1 72:40 77:255 79:1 81:545 82:541 85:99 88:100 89:100 90:100 
0.9510326007190827 1:1 36:1 70:1 72:20 77:255 81:2947 82:2931 85:99 88:100 89:100 90:100 
0.01194865088495236 1:1 36:1 70:1 72:40 77:255 79:1 81:286 82:285 85:99 88:100 89:100 90:100 
0.01229282521665599 1:1 36:1 70:1 72:40 77:255 79:1 81:24 82:24 85:100 88:100 89:100 90:100 
0.1418540874838594 1:1 36:1 70:1 72:40 77:255 79:1 81:322 82:320 85:99 88:100 89:99 90:99 91:1 
1 1:1 36:1 70:1 72:20 77:255 81:3083 82:3065 85:99 88:100 89:100 90:100 
0.4672718818470574 1:1 36:1 70:1 72:40 77:255 79:1 81:1028 82:1022 85:99 88:100 89:99 90:99 91:1 
0.2731359133271573 1:1 36:1 70:1 72:40 77:255 79:1 81:1032 82:1026 85:99 88:100 89:99 90:99 91:1 
0.1965880275229775 1:1 36:1 70:1 72:40 77:255 79:1 81:1431 82:1425 85:99 88:100 89:99 90:99 91:1 
0.07930095205419781 1:1 36:1 70:1 72:20 77:255 81:2843 82:2827 85:99 88:100 89:100 90:100 
0.5818371824093601 1:1 36:1 70:1 72:40 77:255 79:1 81:1635 82:1628 85:99 88:100 89:99 90:99 91:1 
0.04151256261512315 1:1 36:1 70:1 72:40 77:255 79:1 81:328 82:326 85:99 88:100 89:99 90:99 91:1 
0.04147248828997491 1:1 36:1 70:1 72:40 77:255 79:1 81:1570 82:1564 85:99 88:100 89:100 90:100 
0.002930558526194568 1:1 36:1 70:1 72:40 77:255 79:1 81:287 82:286 85:99 88:100 89:100 90:100 
0.2546879877093589 1:1 36:1 70:1 72:40 77:255 79:1 81:65 82:65 85:100 88:100 89:100 90:100 
0.434445227213485 1:1 36:1 70:1 72:40 77:255 79:1 81:152 82:152 85:100 88:100 89:100 90:100 
0.1386479505535926 1:1 36:1 70:1 72:40 77:255 79:1 81:1050 82:1044 85:99 88:100 89:99 90:99 91:1 
0.06544702890011936 1:1 36:1 70:1 72:40 77:255 79:1 81:392 82:388 85:98 86:1 87:1 88:100 89:97 90:97 91:3 
0.005647395683067016 1:1 36:1 70:1 72:40 77:255 79:1 81:1502 82:1496 85:99 88:100 89:100 90:100 
0.2067158780744051 1:1 36:1 70:1 72:40 77:255 79:1 81:387 82:383 85:98 86:1 87:1 88:100 89:97 90:97 91:3 
0.00139803078458878 1:1 36:1 70:1 72:40 77:255 79:1 81:517 82:513 85:99 88:100 89:100 90:100 
0.1405549962041319 1:1 36:1 70:1 72:40 77:255 79:1 81:559 82:555 85:99 88:100 89:100 90:100 
0.2891100814385338 1:1 36:1 70:1 72:40 77:255 79:1 81:1222 82:1216 85:99 88:100 89:100 90:100 
0.1734158251101461 1:1 36:1 70:1 72:40 77:255 79:1 81:933 82:929 85:99 88:100 89:100 90:100 
0.09418266425752048 1:1 36:1 70:1 72:40 77:255 79:1 81:790 82:786 85:99 88:100 89:100 90:100 
0.03367676882709239 1:1 36:1 70:1 72:40 77:255 79:1 81:438 82:434 85:99 88:100 89:98 90:98 91:2 
0.4665839647623422 1:1 36:1 70:1 72:40 77:255 79:1 81:1538 82:1532 85:99 88:100 89:100 90:100 
0.3750374808312359 1:1 36:1 70:1 72:40 77:255 79:1 81:1469 82:1463 85:99 88:100 89:99 90:99 91:1 
0.02031281142835545 1:1 36:1 70:1 72:40 77:255 79:1 81:881 82:877 85:99 88:100 89:100 90:100 
0.4084753521513746 1:1 36:1 70:1 72:40 77:255 79:1 81:1304 82:1298 85:99 88:100 89:100 90:100 
0.39331200299409 1:1 36:1 70:1 72:40 77:255 79:1 81:816 82:812 85:99 88:100 89:100 90:100 
1 1:1 36:1 70:1 72:40 77:255 79:1 81:2131 82:2121 85:99 88:100 89:100 90:100 
0.00190237119007894 1:1 36:1 70:1 72:40 77:255 79:1 81:538 82:534 85:99 88:100 89:100 90:100 
0.09596353057559705 1:1 36:1 70:1 72:40 77:255 79:1 81:1770 82:1763 85:99 88:100 89:100 90:100 
0.5905747541853976 1:1 36:1 70:1 72:40 77:255 79:1 81:1381 82:1375 85:99 88:100 89:100 90:100 
0.6021713375015776 1:1 36:1 70:1 72:40 77:255 79:1 81:1376 82:1370 85:99 88:100 89:100 90:100 
0.2560585432564543 1:1 36:1 70:1 72:40 77:255 79:1 81:1688 82:1681 85:99 88:100 89:100 90:100 
0.168202060893268 1:1 36:1 70:1 72:40 77:255 79:1 81:1279 82:1273 85:99 88:100 89:100 90:100 
0.2343404431871263 1:1 36:1 70:1 72:40 77:255 79:1 81:842 82:838 85:99 88:100 89:100 90:100 
0.1387649054832572 1:1 36:1 70:1 72:20 77:255 81:2851 82:2835 85:99 88:100 89:100 90:100 
0.1917494465005239 1:1 36:1 70:1 72:40 77:255 79:1 81:1839 82:1832 85:99 88:100 89:100 90:100 
0.7083567995100142 1:1 36:1 70:1 72:40 77:255 79:1 81:1043 82:1037 85:99 88:100 89:99 90:99 91:1 
0.02682287370700497 1:1 36:1 70:1 72:40 77:255 79:1 81:1610 82:1604 85:99 88:100 89:100 90:100 
0.3294090320098462 1:1 36:1 60:1 72:40 77:255 79:1 81:733 82:730 85:99 88:100 89:100 90:100 
0.1331925166459628 1:1 36:1 70:1 72:40 77:255 79:1 81:825 82:821 85:99 88:100 89:100 90:100 
0.03707975131373373 1:1 36:1 60:1 72:40 77:255 79:1 81:794 82:791 85:99 88:100 89:100 90:100 
0.4486059034276842 1:1 36:1 70:1 72:40 77:255 79:1 81:1837 82:1830 85:99 88:100 89:100 90:100 
0.2223225025391366 1:1 36:1 70:1 72:40 77:255 79:1 81:662 82:658 85:99 88:100 89:100 90:100 
0.03032015659644242 1:1 36:1 70:1 72:40 77:255 79:1 81:792 82:788 85:99 88:100 89:100 90:100 
0.3149952180233191 1:1 36:1 70:1 72:40 77:255 79:1 81:774 82:770 85:99 88:100 89:100 90:100 
0.004309130159001605 1:1 36:1 70:1 72:40 77:255 79:1 81:115 82:115 85:100 88:100 89:100 90:100 
0.7111011340740178 1:1 36:1 70:1 72:40 77:255 79:1 81:1079 82:1073 85:99 88:100 89:99 90:99 91:1 
0.3876644020314059 1:1 36:1 70:1 72:40 77:255 79:1 81:1459 82:1453 85:99 88:100 89:99 90:99 91:1 
0.1811875418436443 1:1 36:1 70:1 72:40 77:255 79:1 81:832 82:828 85:99 88:100 89:100 90:100 
0.8071173079966493 1:1 36:1 70:1 72:40 77:255 79:1 81:1423 82:1417 85:99 88:100 89:100 90:100 
0.1239243860608792 1:1 36:1 70:1 72:20 77:255 81:2852 82:2836 85:99 88:100 89:100 90:100 
0.02457706604508177 1:1 36:1 70:1 72:40 77:255 79:1 81:704 82:700 85:99 88:100 89:100 90:100 
0.008658928713414112 1:1 36:1 70:1 72:40 77:255 79:1 81:125 82:125 85:100 88:100 89:100 90:100 
0.01246432323278528 1:1 36:1 70:1 72:40 77:255 79:1 81:1796 82:1789 85:99 88:100 89:100 90:100 
0.04051889372214544 1:1 36:1 70:1 72:40 77:255 79:1 81:179 82:178 85:99 88:100 89:99 90:99 91:1 
0.1158499861999743 1:1 36:1 70:1 72:40 77:255 79:1 81:2069 82:2059 85:99 88:100 89:99 90:99 91:1 
0.1044442882866803 1:1 36:1 70:1 72:40 77:255 79:1 81:435 82:431 85:99 88:100 89:98 90:98 91:2 
0.01418006895890298 1:1 36:1 70:1 72:40 77:255 79:1 81:959 82:954 85:99 88:100 89:99 90:99 91:1 
0.4072419008642552 1:1 36:1 70:1 72:40 77:255 79:1 81:935 82:931 85:99 88:100 89:100 90:100 
0.06071431431260278 1:1 36:1 70:1 72:40 77:255 79:1 81:1794 82:1787 85:99 88:100 89:100 90:100 
0.373974339630767 1:1 36:1 70:1 72:40 77:255 79:1 81:1697 82:1690 85:99 88:100 89:100 90:100 
0.6785886208044558 1:1 36:1 70:1 72:40 77:255 79:1 81:927 82:923 85:99 88:100 89:100 90:100 
0.7272875355964378 1:1 36:1 70:1 72:40 77:255 79:1 81:877 82:873 85:99 88:100 89:100 90:100 
0.6361378232298591 1:1 36:1 70:1 72:40 77:255 79:1 81:1365 82:1359 85:99 88:100 89:100 90:100 
0.5466526814553152 1:1 36:1 70:1 72:40 77:255 79:1 81:1737 82:1730 85:99 88:100 89:100 90:100 
0.58762052893914 1:1 36:1 70:1 72:40 77:255 79:1 81:1500 82:1494 85:99 88:100 89:100 90:100 
0.006327171186938608 1:1 36:1 70:1 72:40 77:255 79:1 81:500 82:496 85:99 88:100 89:100 90:100 
0.2216588082275062 1:1 36:1 70:1 72:40 77:255 79:1 81:1990 82:1981 85:99 88:100 89:98 90:98 91:2 
0.05751613729066517 1:1 36:1 70:1 72:40 77:255 79:1 81:1254 82:1248 85:99 88:100 89:100 90:100 
0.1232390944042267 1:1 36:1 70:1 72:40 77:255 79:1 81:778 82:774 85:99 88:100 89:100 90:100 
0.04422217900093148 1:1 36:1 70:1 72:40 77:255 79:1 81:1107 82:1101 85:99 88:100 89:99 90:99 91:1 
0.03833334663666495 1:1 36:1 70:1 72:40 77:255 79:1 81:1199 82:1193 85:99 88:100 89:100 90:100 
0.02018672771021844 1:1 36:1 70:1 72:40 77:255 79:1 81:445 82:441 85:99 88:100 89:98 90:98 91:2 
0.6233395884675466 1:1 36:1 70:1 72:40 77:255 79:1 81:1308 82:1302 85:99 88:100 89:100 90:100 
0.5723846907696656 1:1 36:1 70:1 72:40 77:255 79:1 81:2103 82:2093 85:99 88:100 89:99 90:99 91:1 
1 1:1 47:1 70:1 72:40 77:255 79:1 81:153 86:100 88:100 91:100 
0.2286820052092421 1:1 36:1 70:1 72:40 77:255 79:1 81:1613 82:1607 85:99 88:100 89:100 90:100 
0.5154016687896121 1:1 36:1 70:1 72:40 77:255 79:1 81:294 82:293 85:99 88:100 89:100 90:100 
0.1995475806974927 1:1 36:1 70:1 72:40 77:255 79:1 81:1398 82:1392 85:99 88:100 89:100 90:100 
0.07989238337763156 1:1 36:1 70:1 72:40 77:255 79:1 81:1769 82:1762 85:99 88:100 89:100 90:100 
0.3777359821936165 1:1 36:1 70:1 72:40 77:255 79:1 81:1073 82:1067 85:99 88:100 89:99 90:99 91:1 
0.03417006805256559 1:1 36:1 70:1 72:40 77:255 79:1 81:1383 82:1377 85:99 88:100 89:100 90:100 
0.04129674563278853 1:1 36:1 70:1 72:40 77:255 79:1 81:849 82:845 85:99 88:100 89:100 90:100 
0.3521387638046988 1:1 36:1 70:1 72:40 77:255 79:1 81:1288 82:1282 85:99 88:100 89:100 90:100 
0.1908010763900184 1:1 36:1 70:1 72:40 77:255 79:1 81:145 82:145 85:100 88:100 89:100 90:100 
0.08538096425450524 1:1 36:1 70:1 72:20 77:255 81:2844 82:2828 85:99 88:100 89:100 90:100 
0.0008293421407173929 1:1 36:1 70:1 72:40 77:255 79:1 81:544 82:540 85:99 88:100 89:100 90:100 
0.5884369715177076 1:1 36:1 70:1 72:40 77:255 79:1 81:1495 82:1489 85:99 88:100 89:100 90:100 
0.07583697504595641 1:1 36:1 70:1 72:40 77:255 79:1 81:1407 82:1401 85:99 88:100 89:100 90:100 
0.05572002520368405 1:1 36:1 70:1 72:40 77:255 79:1 81:1165 82:1159 85:99 88:100 89:99 90:99 91:1 
0.4643813244544194 1:1 36:1 70:1 72:40 77:255 79:1 81:254 82:253 85:99 88:100 89:100 90:100 
0.01595225991329676 1:1 36:1 70:1 72:40 77:255 79:1 81:611 82:607 85:99 88:100 89:100 90:100 
0.03203550595653625 1:1 36:1 70:1 72:40 77:255 79:1 81:620 82:616 85:99 88:100 89:100 90:100 
0.1408516814135116 1:1 36:1 70:1 72:40 77:255 79:1 81:705 82:701 85:99 88:100 89:100 90:100 
0.2190051497910719 1:1 36:1 70:1 72:40 77:255 79:1 81:1661 82:1654 85:99 88:100 89:99 90:99 91:1 
0.0009254661725369515 1:1 36:1 70:1 72:40 77:255 79:1 81:1598 82:1592 85:99 88:100 89:100 90:100 
0.002224228790226555 1:1 36:1 70:1 72:40 77:255 79:1 81:276 82:275 85:99 88:100 89:100 90:100 
0.005538588820081792 1:1 36:1 70:1 72:40 77:255 79:1 81:555 82:551 85:99 88:100 89:100 90:100 
0.3710360481844571 1:1 36:1 70:1 72:40 77:255 79:1 81:996 82:991 85:99 88:100 89:99 90:99 91:1 
0.09156645492861822 1:1 36:1 70:1 72:40 77:255 79:1 81:119 82:119 85:100 88:100 89:100 90:100 
0.0007842317369115521 1:1 36:1 70:1 72:40 77:255 79:1 81:1309 82:1303 85:99 88:100 89:100 90:100 
0.1701117671200331 1:1 36:1 70:1 72:40 77:255 79:1 81:198 82:197 85:99 88:100 89:99 90:99 91:1 
0.3760151348279494 1:1 36:1 70:1 72:40 77:255 79:1 81:72 82:72 85:100 88:100 89:100 90:100 
0.1368411979665295 1:1 36:1 70:1 72:40 77:255 79:1 81:756 82:752 85:99 88:100 89:100 90:100 
0.2404723464078735 1:1 36:1 70:1 72:40 77:255 79:1 81:1060 82:1054 85:99 88:100 89:99 90:99 91:1 
0.4319978316207161 1:1 36:1 70:1 72:40 77:255 79:1 81:409 82:405 85:99 88:100 89:97 90:97 91:3 
0.06469624227149424 1:1 36:1 70:1 72:40 77:255 79:1 81:568 82:564 85:99 88:100 89:100 90:100 
1 1:1 36:1 70:1 72:40 77:255 79:1 81:1912 82:1904 85:99 88:100 89:99 90:99 91:1 
0.07577126224467061 1:1 36:1 70:1 72:40 77:255 79:1 81:1362 82:1356 85:99 88:100 89:100 90:100 
0.591925142731061 1:1 36:1 70:1 72:40 77:255 79:1 81:1827 82:1820 85:99 88:100 89:100 90:100 
0.08682590950861725 1:1 36:1 70:1 72:40 77:255 79:1 81:1158 82:1152 85:99 88:100 89:99 90:99 91:1 
0.1761462595117831 1:1 36:1 70:1 72:40 77:255 79:1 81:1813 82:1806 85:99 88:100 89:100 90:100 
0.4144141235342738 1:1 36:1 70:1 72:40 77:255 79:1 81:1370 82:1364 85:99 88:100 89:100 90:100 
0.2604702453769828 1:1 36:1 70:1 72:40 77:255 79:1 81:1998 82:1989 85:99 88:100 89:98 90:98 91:2 
0.02352540824353582 1:1 36:1 70:1 72:40 77:255 79:1 81:1663 82:1656 85:99 88:100 89:99 90:99 91:1 
0.03501875043058077 1:1 36:1 70:1 72:40 77:255 79:1 81:116 82:116 85:100 88:100 89:100 90:100 
0.4932779260431451 1:1 36:1 70:1 72:40 77:255 79:1 81:866 82:862 85:99 88:100 89:100 90:100 
0.4799544683627097 1:1 36:1 70:1 72:40 77:255 79:1 81:1647 82:1640 85:99 88:100 89:99 90:99 91:1 
0.5158485206511821 1:1 36:1 70:1 72:40 77:255 79:1 81:1009 82:1004 85:99 88:100 89:100 90:100 
0.2765181390387991 1:1 36:1 70:1 72:40 77:255 79:1 81:1540 82:1534 85:99 88:100 89:100 90:100 
0.5925891176355172 1:1 36:1 70:1 72:40 77:255 79:1 81:888 82:884 85:99 88:100 89:100 90:100 
0.003584603497749002 1:1 36:1 70:1 72:40 77:255 79:1 81:490 82:486 85:99 88:100 89:100 90:100 
0.01655394777294035 1:1 36:1 70:1 72:40 77:255 79:1 81:139 82:139 85:100 88:100 89:100 90:100 
0.6605822869484692 1:1 36:1 70:1 72:40 77:255 79:1 81:430 82:426 85:99 88:100 89:98 90:98 91:2 
0.09838012373623144 1:1 36:1 70:1 72:40 77:255 79:1 81:561 82:557 85:99 88:100 89:100 90:100 
0.3202628372790216 1:1 36:1 70:1 72:40 77:255 79:1 81:1114 82:1108 85:99 88:100 89:99 90:99 91:1 
0.2687685832791056 1:1 36:1 70:1 72:40 77:255 79:1 81:655 82:651 85:99 88:100 89:100 90:100 
0.01968524733867148 1:1 36:1 70:1 72:40 77:255 79:1 81:1779 82:1772 85:99 88:100 89:100 90:100 
0.5445955479400819 1:1 36:1 70:1 72:40 77:255 79:1 81:1409 82:1403 85:99 88:100 89:100 90:100 
0.001176689834607443 1:1 36:1 70:1 72:40 77:255 79:1 81:1197 82:1191 85:99 88:100 89:100 90:100 
0.3812007147902906 1:1 36:1 70:1 72:40 77:255 79:1 81:369 82:366 85:99 88:100 89:98 90:98 91:2 
0.1784042475501838 1:1 36:1 70:1 72:40 77:255 79:1 81:689 82:685 85:99 88:100 89:100 90:100 
0.1016700212181395 1:1 36:1 70:1 72:20 77:255 81:3058 82:3040 85:99 88:100 89:99 90:99 91:1 
0.4538148694318858 1:1 36:1 70:1 72:20 77:255 81:2862 82:2846 85:99 88:100 89:100 90:100 
0.06454759481024946 1:1 36:1 60:1 72:40 77:255 79:1 81:763 82:760 85:99 88:100 89:100 90:100 
0.2145427323061861 1:1 36:1 70:1 72:40 77:255 79:1 81:345 82:343 85:99 88:100 89:99 90:99 91:1 
0.7302897953710797 1:1 36:1 70:1 72:40 77:255 79:1 81:1144 82:1138 85:99 88:100 89:99 90:99 91:1 
0.3500829918617901 1:1 36:1 70:1 72:40 77:255 79:1 81:806 82:802 85:99 88:100 89:100 90:100 
0.2969792847525229 1:1 36:1 60:1 72:40 77:255 79:1 81:802 82:799 85:99 88:100 89:100 90:100 
0.8295303689153972 1:1 36:1 70:1 72:40 77:255 79:1 81:2176 82:2165 85:99 88:100 89:99 90:99 91:1 
0.3062367343335158 1:1 36:1 70:1 72:40 77:255 79:1 81:1068 82:1062 85:99 88:100 89:99 90:99 91:1 
0.001751357840710066 1:1 36:1 70:1 72:40 77:255 79:1 81:551 82:547 85:99 88:100 89:100 90:100 
0.02128219431537722 1:1 36:1 70:1 72:40 77:255 79:1 81:104 82:104 85:100 88:100 89:100 90:100 
0.5893181458103663 1:1 36:1 70:1 72:40 77:255 79:1 81:362 82:360 85:99 88:100 89:99 90:99 91:1 92:1 
1 1:1 44:1 70:1 72:40 77:255 79:1 81:315 86:100 88:100 91:100 
0.7517807214134232 1:1 36:1 70:1 72:40 77:255 79:1 81:1132 82:1126 85:99 88:100 89:98 90:98 91:2 
0.002289100382721421 1:1 36:1 70:1 72:40 77:255 79:1 81:275 82:274 85:99 88:100 89:100 90:100 
0.1505301744503921 1:1 36:1 70:1 72:40 77:255 79:1 81:372 82:369 85:99 88:100 89:98 90:98 91:2 
0.0597449248671164 1:1 36:1 70:1 72:40 77:255 79:1 81:1707 82:1700 85:99 88:100 89:100 90:100 
0.2184005759863982 1:1 36:1 70:1 72:40 77:255 79:1 81:160 82:159 85:99 88:100 89:99 90:99 91:1 
0.02965076919877476 1:1 36:1 70:1 72:40 77:255 79:1 81:1344 82:1338 85:99 88:100 89:100 90:100 
0.5332051484386759 1:1 36:1 70:1 72:40 77:255 79:1 81:710 82:706 85:99 88:100 89:100 90:100 
0.6633136949372637 1:1 36:1 70:1 72:40 77:255 79:1 81:1151 82:1145 85:99 88:100 89:99 90:99 91:1 
0.00117324151764046 1:1 36:1 70:1 72:40 77:255 79:1 81:1806 82:1799 85:99 88:100 89:100 90:100 
0.05476876820413544 1:1 36:1 70:1 72:40 77:255 79:1 81:1474 82:1468 85:99 88:100 89:100 90:100 
0.3125673684918939 1:1 36:1 70:1 72:40 77:255 79:1 81:159 82:158 85:99 88:100 89:99 90:99 91:1 
0.02490775521422842 1:1 36:1 70:1 72:40 77:255 79:1 81:1548 82:1542 85:99 88:100 89:100 90:100 
0.8271716180015665 1:1 36:1 70:1 72:40 77:255 79:1 81:2179 82:2168 85:99 88:100 89:99 90:99 91:1 
0.003082179956272402 1:1 36:1 70:1 72:40 77:255 79:1 81:1146 82:1140 85:99 88:100 89:99 90:99 91:1 
0.4863339119138979 1:1 36:1 70:1 72:40 77:255 79:1 81:233 82:232 85:99 88:100 89:99 90:99 91:1 
0.002680790736384941 1:1 36:1 70:1 72:40 77:255 79:1 81:1315 82:1309 85:99 88:100 89:100 90:100 
0.03117882325944697 1:1 36:1 70:1 72:40 77:255 79:1 81:1082 82:1076 85:99 88:100 89:99 90:99 91:1 
0.4863892778804397 1:1 36:1 70:1 72:40 77:255 79:1 81:172 82:171 85:99 88:100 89:99 90:99 91:1 
0.0008870541460692364 1:1 36:1 70:1 72:40 77:255 79:1 81:805 82:801 85:99 88:100 89:100 90:100 
0.5686353832824301 1:1 36:1 70:1 72:40 77:255 79:1 81:505 82:501 85:99 88:100 89:100 90:100 
0.02010888492529121 1:1 36:1 60:1 72:40 77:255 79:1 81:744 82:741 85:99 88:100 89:100 90:100 
1 1:1 36:1 70:1 72:20 77:255 81:2831 82:2815 85:99 88:100 89:100 90:100 
0.03083183602321912 1:1 36:1 60:1 72:40 77:255 79:1 81:793 82:790 85:99 88:100 89:100 90:100 
0.5885674558066485 1:1 36:1 70:1 72:40 77:255 79:1 81:1816 82:1809 85:99 88:100 89:100 90:100 
0.04356897645911571 1:1 36:1 70:1 72:40 77:255 79:1 81:1645 82:1638 85:99 88:100 89:99 90:99 91:1 
0.2526600451099119 1:1 36:1 70:1 72:40 77:255 79:1 81:1863 82:1856 85:99 88:100 89:100 90:100 
0.3341121147170623 1:1 36:1 70:1 72:20 77:255 81:2863 82:2847 85:99 88:100 89:100 90:100 
0.3235036500452983 1:1 36:1 70:1 72:40 77:255 79:1 81:2112 82:2102 85:99 88:100 89:100 90:100 
0.1493547972996826 1:1 36:1 70:1 72:40 77:255 79:1 81:1696 82:1689 85:99 88:100 89:100 90:100 
0.7485231926490625 1:1 36:1 70:1 72:40 77:255 79:1 81:519 82:515 85:99 88:100 89:100 90:100 
0.1569837928782683 1:1 36:1 70:1 72:40 77:255 79:1 81:1013 82:1008 85:99 88:100 89:100 90:100 
0.04092606347412487 1:1 36:1 70:1 72:40 77:255 79:1 81:907 82:903 85:99 88:100 89:100 90:100 
0.7207185735021623 1:1 36:1 70:1 72:40 77:255 79:1 81:283 82:282 85:99 88:100 89:100 90:100 
0.005514694925990693 1:1 36:1 70:1 72:40 77:255 79:1 81:915 82:911 85:99 88:100 89:100 90:100 
0.2562424468108931 1:1 36:1 70:1 72:40 77:255 79:1 81:698 82:694 85:99 88:100 89:100 90:100 
0.1267470416915427 1:1 36:1 70:1 72:40 77:255 79:1 81:1406 82:1400 85:99 88:100 89:100 90:100 
0.04088797487671306 1:1 36:1 70:1 72:40 77:255 79:1 81:560 82:556 85:99 88:100 89:100 90:100 
0.6152134688788821 1:1 36:1 70:1 72:40 77:255 79:1 81:52 82:52 85:100 88:100 89:100 90:100 
0.5337835358683772 1:1 36:1 70:1 72:40 77:255 79:1 81:187 82:186 85:99 88:100 89:99 90:99 91:1 
0.2599747442896295 1:1 36:1 70:1 72:40 77:255 79:1 81:473 82:469 85:99 88:100 89:99 90:99 91:1 
0.09738108380871689 1:1 36:1 70:1 72:40 77:255 79:1 81:1860 82:1853 85:99 88:100 89:100 90:100 
0.2024182638135102 1:1 36:1 70:1 72:40 77:255 79:1 81:937 82:933 85:99 88:100 89:100 90:100 
0.02826880993085736 1:1 36:1 70:1 72:40 77:255 79:1 81:1681 82:1674 85:99 88:100 89:100 90:100 
0.03699864127822425 1:1 36:1 70:1 72:40 77:255 79:1 81:1734 82:1727 85:99 88:100 89:100 90:100 
0.03428979507461158 1:1 36:1 70:1 72:40 77:255 79:1 81:1392 82:1386 85:99 88:100 89:100 90:100 
0.1407352337468991 1:1 36:1 70:1 72:40 77:255 79:1 81:16 82:16 85:100 88:100 89:100 90:100 
0.0622285005913621 1:1 36:1 70:1 72:40 77:255 79:1 81:1537 82:1531 85:99 88:100 89:100 90:100 
0.03707224057723356 1:1 36:1 70:1 72:40 77:255 79:1 81:1149 82:1143 85:99 88:100 89:99 90:99 91:1 
0.4037544902540398 1:1 36:1 70:1 72:20 77:255 81:3062 82:3044 85:99 88:100 89:100 90:100 
0.08515192110536643 1:1 36:1 70:1 72:40 77:255 79:1 81:1129 82:1123 85:99 88:100 89:99 90:99 91:1 
0.004392982024410963 1:1 36:1 70:1 72:40 77:255 79:1 81:1123 82:1117 85:99 88:100 89:99 90:99 91:1 
0.1024816581407815 1:1 36:1 70:1 72:40 77:255 79:1 81:1280 82:1274 85:99 88:100 89:100 90:100 
0.2547690974276584 1:1 36:1 70:1 72:40 77:255 79:1 81:1724 82:1717 85:99 88:100 89:100 90:100 
0.005295797109451905 1:1 36:1 70:1 72:40 77:255 79:1 81:753 82:749 85:99 88:100 89:100 90:100 
0.06021081314114212 1:1 36:1 60:1 72:40 77:255 79:1 81:798 82:795 85:99 88:100 89:100 90:100 
0.01283396848611375 1:1 36:1 70:1 72:40 77:255 79:1 81:211 82:210 85:99 88:100 89:99 90:99 91:1 
0.1608986434844996 1:1 36:1 70:1 72:40 77:255 79:1 81:1411 82:1405 85:99 88:100 89:100 90:100 
0.1844236585819729 1:1 36:1 70:1 72:40 77:255 79:1 81:1478 82:1472 85:99 88:100 89:100 90:100 
0.100897054334695 1:1 36:1 70:1 72:40 77:255 79:1 81:1528 82:1522 85:99 88:100 89:100 90:100 
0.1874344601511746 1:1 36:1 70:1 72:40 77:255 79:1 81:410 82:406 85:99 88:100 89:97 90:97 91:3 
0.6479365381004537 1:1 36:1 70:1 72:40 77:255 79:1 81:1524 82:1518 85:99 88:100 89:100 90:100 
0.2754328919257318 1:1 36:1 70:1 72:40 77:255 79:1 81:402 82:398 85:99 87:1 88:100 89:97 90:97 91:3 
0.6690584127705643 1:1 36:1 70:1 72:40 77:255 79:1 81:1234 82:1228 85:99 88:100 89:100 90:100 
1 1:1 36:1 70:1 72:40 77:255 79:1 81:2053 82:2043 85:99 88:100 89:97 90:97 91:3 
0.008786075033470394 1:1 36:1 70:1 72:40 77:255 79:1 81:1302 82:1296 85:99 88:100 89:100 90:100 
0.4800944645946053 1:1 36:1 70:1 72:40 77:255 79:1 81:1247 82:1241 85:99 88:100 89:100 90:100 
0.003640005645389965 1:1 36:1 70:1 72:40 77:255 79:1 81:1323 82:1317 85:99 88:100 89:100 90:100 
0.0607136925180608 1:1 36:1 70:1 72:40 77:255 79:1 81:1445 82:1439 85:99 88:100 89:98 90:98 91:2 
0.01480376458516535 1:1 36:1 70:1 72:40 77:255 79:1 81:102 82:102 85:100 88:100 89:100 90:100 
0.4517532598604007 1:1 36:1 70:1 72:40 77:255 79:1 81:376 82:373 85:99 88:100 89:98 90:98 91:2 
0.413978299382147 1:1 36:1 70:1 72:40 77:255 79:1 81:1255 82:1249 85:99 88:100 89:100 90:100 
0.0623494725481878 1:1 36:1 70:1 72:40 77:255 79:1 81:429 82:425 85:99 88:100 89:98 90:98 91:2 
0.06279975582763467 1:1 36:1 70:1 72:40 77:255 79:1 81:850 82:846 85:99 88:100 89:100 90:100 
0.03307858016549884 1:1 36:1 70:1 72:40 77:255 79:1 81:1425 82:1419 85:99 88:100 89:100 90:100 
0.3933475650635336 1:1 36:1 70:1 72:40 77:255 79:1 81:1750 82:1743 85:99 88:100 89:100 90:100 
0.01052504710426678 1:1 36:1 70:1 72:40 77:255 79:1 81:1638 82:1631 85:99 88:100 89:99 90:99 91:1 
0.5308735214115086 1:1 36:1 70:1 72:40 77:255 79:1 81:1701 82:1694 85:99 88:100 89:100 90:100 
0.1783841265427679 1:1 36:1 70:1 72:40 77:255 79:1 81:1549 82:1543 85:99 88:100 89:100 90:100 
0.4880351816664512 1:1 36:1 70:1 72:40 77:255 79:1 81:478 82:474 85:99 88:100 89:100 90:100 
0.003470030752208853 1:1 36:1 70:1 72:40 77:255 79:1 81:130 82:130 85:100 88:100 89:100 90:100 
0.2880618633748377 1:1 36:1 70:1 72:40 77:255 79:1 81:1848 82:1841 85:99 88:100 89:100 90:100 
0.03669691555079179 1:1 36:1 70:1 72:40 77:255 79:1 81:801 82:797 85:99 88:100 89:100 90:100 
0.09521236165742371 1:1 36:1 70:1 72:40 77:255 79:1 81:1051 82:1045 85:99 88:100 89:99 90:99 91:1 
0.01672175131195324 1:1 36:1 70:1 72:40 77:255 79:1 81:457 82:453 85:99 88:100 89:98 90:98 91:2 
0.001006132475807997 1:1 36:1 70:1 72:40 77:255 79:1 81:191 82:190 85:99 88:100 89:99 90:99 91:1 
0.03849901253238133 1:1 36:1 70:1 72:40 77:255 79:1 81:1512 82:1506 85:99 88:100 89:100 90:100 
0.4785405511112997 1:1 36:1 70:1 72:40 77:255 79:1 81:1673 82:1666 85:99 88:100 89:100 90:100 
0.1480756918030953 1:1 36:1 70:1 72:40 77:255 79:1 81:446 82:442 85:99 88:100 89:98 90:98 91:2 
0.02525600621051945 1:1 36:1 70:1 72:40 77:255 79:1 81:1399 82:1393 85:99 88:100 89:100 90:100 
0.4838764005062097 1:1 36:1 70:1 72:40 77:255 79:1 81:893 82:889 85:99 88:100 89:100 90:100 
0.4308494047308197 1:1 36:1 70:1 72:40 77:255 79:1 81:1171 82:1165 85:99 88:100 89:99 90:99 91:1 
0.4652738309565473 1:1 36:1 70:1 72:40 77:255 79:1 81:1746 82:1739 85:99 88:100 89:100 90:100 
0.3585100768581523 1:1 36:1 70:1 72:40 77:255 79:1 81:577 82:573 85:99 88:100 89:100 90:100 
0.09653674905024 1:1 36:1 70:1 72:40 77:255 79:1 81:1360 82:1354 85:99 88:100 89:100 90:100 
0.04105788414432067 1:1 36:1 70:1 72:40 77:255 79:1 81:1076 82:1070 85:99 88:100 89:99 90:99 91:1 
0.6374749612530404 1:1 36:1 70:1 72:40 77:255 79:1 81:658 82:654 85:99 88:100 89:100 90:100 
0.1488727275635504 1:1 36:1 70:1 72:40 77:255 79:1 81:1239 82:1233 85:99 88:100 89:100 90:100 
0.2940227355795281 1:1 36:1 70:1 72:40 77:255 79:1 81:1580 82:1574 85:99 88:100 89:100 90:100 
0.3604587174946834 1:1 36:1 70:1 72:20 77:255 81:3050 82:3032 85:99 88:100 89:99 90:99 91:1 
0.1484984624715495 1:1 36:1 70:1 72:40 77:255 79:1 81:1716 82:1709 85:99 88:100 89:100 90:100 
0.4027844508423742 1:1 36:1 70:1 72:40 77:255 79:1 81:1668 82:1661 85:99 88:100 89:100 90:100 
0.1491496877780546 1:1 36:1 70:1 72:40 77:255 79:1 81:79 82:79 85:100 88:100 89:100 90:100 
0.2246372181510939 1:1 36:1 70:1 72:40 77:255 79:1 81:1958 82:1949 85:99 88:100 89:99 90:99 91:1 
0.07314212023784002 1:1 36:1 70:1 72:40 77:255 79:1 81:787 82:783 85:99 88:100 89:100 90:100 
0.002953206161745377 1:1 36:1 70:1 72:40 77:255 79:1 81:1100 82:1094 85:99 88:100 89:99 90:99 91:1 
0.4722804562159864 1:1 36:1 70:1 72:40 77:255 79:1 81:1761 82:1754 85:99 88:100 89:100 90:100 
0.2420842449308836 1:1 36:1 70:1 72:40 77:255 79:1 81:718 82:714 85:99 88:100 89:100 90:100 
0.2025886578701207 1:1 36:1 70:1 72:40 77:255 79:1 81:1660 82:1653 85:99 88:100 89:99 90:99 91:1 
0.7335918694895086 1:1 36:1 70:1 72:40 77:255 79:1 81:526 82:522 85:99 88:100 89:100 90:100 
0.8776623078308119 1:1 36:1 70:1 72:20 77:255 81:2839 82:2823 85:99 88:100 89:100 90:100 
0.1811575429299615 1:1 36:1 70:1 72:40 77:255 79:1 81:822 82:818 85:99 88:100 89:100 90:100 
0.09068172876971936 1:1 36:1 70:1 72:40 77:255 79:1 81:1760 82:1753 85:99 88:100 89:100 90:100 
0.019555494821069 1:1 36:1 70:1 72:40 77:255 79:1 81:1725 82:1718 85:99 88:100 89:100 90:100 
0.113142046665315 1:1 36:1 70:1 72:40 77:255 79:1 81:329 82:327 85:99 88:100 89:99 90:99 91:1 
0.4486307000616062 1:1 36:1 70:1 72:40 77:255 79:1 81:2001 82:1992 85:99 88:100 89:98 90:98 91:2 
0.07716509661178216 1:1 36:1 70:1 72:40 77:255 79:1 81:757 82:753 85:99 88:100 89:100 90:100 
0.5861464635854928 1:1 36:1 70:1 72:40 77:255 79:1 81:1110 82:1104 85:99 88:100 89:99 90:99 91:1 
0.1825424355357008 1:1 36:1 70:1 72:40 77:255 79:1 81:126 82:126 85:100 88:100 89:100 90:100 
0.6369042113264721 1:1 36:1 70:1 72:40 77:255 79:1 81:1510 82:1504 85:99 88:100 89:100 90:100 
0.0291433389011394 1:1 36:1 70:1 72:40 77:255 79:1 81:932 82:928 85:99 88:100 89:100 90:100 
0.02988122314204849 1:1 36:1 70:1 72:40 77:255 79:1 81:917 82:913 85:99 88:100 89:100 90:100 
0.4193499130532506 1:1 36:1 70:1 72:40 77:255 79:1 81:1025 82:1020 85:99 88:100 89:100 90:100 
1 1:1 41:1 70:1 72:40 77:255 79:1 81:1620 86:100 88:100 91:100 
0.01166545793434598 1:1 36:1 70:1 72:40 77:255 79:1 81:1042 82:1036 85:99 88:100 89:99 90:99 91:1 
1 1:1 26:1 70:1 72:40 77:255 79:1 81:1888 86:100 88:100 91:100 
0.008482738957235345 1:1 36:1 70:1 72:40 77:255 79:1 81:231 82:230 85:99 88:100 89:99 90:99 91:1 
0.3042725566998664 1:1 36:1 70:1 72:40 77:255 79:1 81:346 82:344 85:99 88:100 89:99 90:99 91:1 
0.2867594716206705 1:1 36:1 70:1 72:40 77:255 79:1 81:851 82:847 85:99 88:100 89:100 90:100 
0.6021931686523629 1:1 36:1 70:1 72:40 77:255 79:1 81:32 82:32 85:100 88:100 89:100 90:100 
0.003393399994850567 1:1 36:1 70:1 72:40 77:255 79:1 81:875 82:871 85:99 88:100 89:100 90:100 
0.1445188068352987 1:1 36:1 70:1 72:40 77:255 79:1 81:1606 82:1600 85:99 88:100 89:100 90:100 
0.5833589481588708 1:1 36:1 70:1 72:40 77:255 79:1 81:1476 82:1470 85:99 88:100 89:100 90:100 
0.427761235263161 1:1 36:1 70:1 72:40 77:255 79:1 81:367 82:365 85:99 88:100 89:99 90:99 91:1 
0.2991351872521781 1:1 36:1 70:1 72:40 77:255 79:1 81:305 82:304 85:99 88:100 89:100 90:100 
0.03305814831615514 1:1 36:1 70:1 72:40 77:255 79:1 81:570 82:566 85:99 88:100 89:100 90:100 
0.1081959305504195 1:1 36:1 70:1 72:40 77:255 79:1 81:422 82:418 85:99 88:100 89:98 90:98 91:2 
0.1995442889142313 1:1 36:1 70:1 72:40 77:255 79:1 81:169 82:168 85:99 88:100 89:99 90:99 91:1 
0.5571012007939271 1:1 36:1 70:1 72:40 77:255 79:1 81:581 82:577 85:99 88:100 89:100 90:100 
0.485538012376033 1:1 36:1 70:1 72:40 77:255 79:1 81:1188 82:1182 85:99 88:100 89:100 90:100 
0.002182206713525378 1:1 36:1 60:1 72:40 77:255 79:1 81:771 82:768 85:99 88:100 89:100 90:100 
0.1915999278742341 1:1 36:1 70:1 72:40 77:255 79:1 81:954 82:949 85:99 88:100 89:99 90:99 91:1 
0.3207569213892761 1:1 36:1 70:1 72:40 77:255 79:1 81:1278 82:1272 85:99 88:100 89:100 90:100 
0.3259365196438148 1:1 36:1 70:1 72:40 77:255 79:1 81:97 82:97 85:100 88:100 89:100 90:100 
0.05197019046002341 1:1 36:1 70:1 72:40 77:255 79:1 81:2105 82:2095 85:99 88:100 89:99 90:99 91:1 
0.5984824905790456 1:1 36:1 70:1 72:40 77:255 79:1 81:573 82:569 85:99 88:100 89:100 90:100 
0.3901787622346877 1:1 36:1 70:1 72:40 77:255 79:1 81:483 82:479 85:99 88:100 89:100 90:100 
0.01325655637807267 1:1 36:1 70:1 72:40 77:255 79:1 81:694 82:690 85:99 88:100 89:100 90:100 
0.008115924771385272 1:1 36:1 70:1 72:40 77:255 79:1 81:1248 82:1242 85:99 88:100 89:100 90:100 
0.4399113327627645 1:1 36:1 70:1 72:40 77:255 79:1 81:85 82:85 85:100 88:100 89:100 90:100 
0.63259614591816 1:1 36:1 70:1 72:40 77:255 79:1 81:182 82:181 85:99 88:100 89:99 90:99 91:1 
0.2459790685225166 1:1 36:1 70:1 72:40 77:255 79:1 81:400 82:396 85:99 86:1 87:1 88:100 89:97 90:97 91:3 
0.04771920286182986 1:1 36:1 70:1 72:40 77:255 79:1 81:1742 82:1735 85:99 88:100 89:100 90:100 
0.03157035483742823 1:1 36:1 70:1 72:40 77:255 79:1 81:731 82:727 85:99 88:100 89:100 90:100 
0.7047044105288099 1:1 36:1 70:1 72:40 77:255 79:1 81:1402 82:1396 85:99 88:100 89:100 90:100 
0.042753837827793 1:1 36:1 70:1 72:40 77:255 79:1 81:1493 82:1487 85:99 88:100 89:100 90:100 
0.006529641725859577 1:1 36:1 70:1 72:40 77:255 79:1 81:982 82:977 85:99 88:100 89:99 90:99 91:1 
0.002971417236652787 1:1 36:1 70:1 72:40 77:255 79:1 81:1637 82:1630 85:99 88:100 89:99 90:99 91:1 
0.7267519185048034 1:1 36:1 70:1 72:40 77:255 79:1 81:1206 82:1200 85:99 88:100 89:100 90:100 
0.278920133029999 1:1 36:1 70:1 72:40 77:255 79:1 81:939 82:935 85:99 88:100 89:100 90:100 
0.08862337651470122 1:1 36:1 70:1 72:40 77:255 79:1 81:1122 82:1116 85:99 88:100 89:99 90:99 91:1 
0.07753054396428734 1:1 36:1 70:1 72:40 77:255 79:1 81:38 82:38 85:100 88:100 89:100 90:100 
0.1148402657926252 1:1 36:1 70:1 72:40 77:255 79:1 81:1148 82:1142 85:99 88:100 89:99 90:99 91:1 
0.04809656043697458 1:1 36:1 70:1 72:40 77:255 79:1 81:1557 82:1551 85:99 88:100 89:100 90:100 
0.5600239578975152 1:1 36:1 70:1 72:40 77:255 79:1 81:60 82:60 85:100 88:100 89:100 90:100 
0.003703410239169169 1:1 36:1 70:1 72:40 77:255 79:1 81:1605 82:1599 85:99 88:100 89:100 90:100 
0.4622152992998155 1:1 36:1 70:1 72:40 77:255 79:1 81:247 82:246 85:99 88:100 89:99 90:99 91:1 
0.4820413622582714 1:1 36:1 70:1 72:40 77:255 79:1 81:1728 82:1721 85:99 88:100 89:100 90:100 
0.1227911093668147 1:1 36:1 70:1 72:40 77:255 79:1 81:1084 82:1078 85:99 88:100 89:99 90:99 91:1 
0.6404894390713642 1:1 36:1 70:1 72:40 77:255 79:1 81:906 82:902 85:99 88:100 89:100 90:100 
0.00085844004592071 1:1 36:1 70:1 72:40 77:255 79:1 81:1193 82:1187 85:99 88:100 89:100 90:100 
0.3801358828570039 1:1 36:1 70:1 72:40 77:255 79:1 81:1098 82:1092 85:99 88:100 89:99 90:99 91:1 
0.2370724465784186 1:1 36:1 70:1 72:40 77:255 79:1 81:1010 82:1005 85:99 88:100 89:100 90:100 
0.4718932972037894 1:1 36:1 70:1 72:40 77:255 79:1 81:1709 82:1702 85:99 88:100 89:100 90:100 
0.0114664183916806 1:1 36:1 70:1 72:40 77:255 79:1 81:576 82:572 85:99 88:100 89:100 90:100 
0.05368318772640262 1:1 36:1 70:1 72:40 77:255 79:1 81:111 82:111 85:100 88:100 89:100 90:100 
0.03381552828680216 1:1 36:1 70:1 72:40 77:255 79:1 81:2088 82:2078 85:99 88:100 89:99 90:99 91:1 
0.02701185081558915 1:1 36:1 70:1 72:40 77:255 79:1 81:863 82:859 85:99 88:100 89:100 90:100 
0.2512352450868314 1:1 36:1 70:1 72:40 77:255 79:1 81:1662 82:1655 85:99 88:100 89:99 90:99 91:1 
0.2427368772481976 1:1 36:1 70:1 72:40 77:255 79:1 81:39 82:39 85:100 88:100 89:100 90:100 
0.5647617867828967 1:1 36:1 70:1 72:40 77:255 79:1 81:695 82:691 85:99 88:100 89:100 90:100 
0.5977478949962081 1:1 36:1 70:1 72:40 77:255 79:1 81:352 82:350 85:99 88:100 89:99 90:99 91:1 
0.6204393395621504 1:1 36:1 60:1 72:40 77:255 79:1 81:721 82:718 85:99 88:100 89:100 90:100 
0.2778229893743751 1:1 36:1 70:1 72:40 77:255 79:1 81:303 82:302 85:99 88:100 89:100 90:100 
0.04870230292073856 1:1 36:1 70:1 72:40 77:255 79:1 81:1567 82:1561 85:99 88:100 89:100 90:100 
0.3848620688667364 1:1 36:1 70:1 72:40 77:255 79:1 81:741 82:737 85:99 88:100 89:100 90:100 
0.08376283174126707 1:1 36:1 70:1 72:40 77:255 79:1 81:188 82:187 85:99 88:100 89:99 90:99 91:1 
0.417182393937961 1:1 36:1 70:1 72:40 77:255 79:1 81:141 82:141 85:100 88:100 89:100 90:100 
1 1:1 36:1 70:1 72:40 77:255 79:1 81:2036 82:2026 85:99 88:100 89:97 90:97 91:3 
0.6719310860016535 1:1 36:1 70:1 72:40 77:255 79:1 81:883 82:879 85:99 88:100 89:100 90:100 
0.363951539496343 1:1 36:1 70:1 72:40 77:255 79:1 81:216 82:215 85:99 88:100 89:99 90:99 91:1 
0.3877545582293577 1:1 36:1 70:1 72:20 77:255 81:3061 82:3043 85:99 88:100 89:99 90:99 91:1 
0.6040763500527554 1:1 36:1 70:1 72:40 77:255 79:1 81:1652 82:1645 85:99 88:100 89:99 90:99 91:1 
0.6061606573587826 1:1 36:1 70:1 72:40 77:255 79:1 81:1793 82:1786 85:99 88:100 89:100 90:100 
0.6697013207329952 1:1 36:1 70:1 72:40 77:255 79:1 81:683 82:679 85:99 88:100 89:100 90:100 92:1 
0.4292093875917729 1:1 36:1 70:1 72:40 77:255 79:1 81:416 82:412 85:99 88:100 89:98 90:98 91:2 
0.06028200586329659 1:1 36:1 70:1 72:40 77:255 79:1 81:1324 82:1318 85:99 88:100 89:100 90:100 
0.1184836150528924 1:1 36:1 70:1 72:40 77:255 79:1 81:209 82:208 85:99 88:100 89:99 90:99 91:1 
0.08680527749756714 1:1 36:1 70:1 72:40 77:255 79:1 81:1654 82:1647 85:99 88:100 89:99 90:99 91:1 
0.7176274375281788 1:1 36:1 70:1 72:40 77:255 79:1 81:1430 82:1424 85:99 88:100 89:100 90:100 
0.3822988874737152 1:1 36:1 70:1 72:40 77:255 79:1 81:605 82:601 85:99 88:100 89:100 90:100 
0.01139099082855891 1:1 36:1 60:1 72:40 77:255 79:1 81:736 82:733 85:99 88:100 89:100 90:100 
0.6400237578011382 1:1 36:1 70:1 72:40 77:255 79:1 81:332 82:330 85:99 88:100 89:99 90:99 91:1 
0.01788375091232036 1:1 36:1 70:1 72:40 77:255 79:1 81:1066 82:1060 85:99 88:100 89:99 90:99 91:1 
1 1:1 54:1 70:1 72:40 77:255 79:1 81:377 86:100 88:100 91:100 
0.2075171726971769 1:1 36:1 70:1 72:40 77:255 79:1 81:592 82:588 85:99 88:100 89:100 90:100 
0.01645943032538569 1:1 36:1 70:1 72:40 77:255 79:1 81:1184 82:1178 85:99 88:100 89:100 90:100 
0.04459711427982413 1:1 36:1 70:1 72:40 77:255 79:1 81:2095 82:2085 85:99 88:100 89:99 90:99 91:1 
0.01262000840431529 1:1 36:1 70:1 72:40 77:255 79:1 81:1245 82:1239 85:99 88:100 89:100 90:100 
0.02075258675726693 1:1 36:1 70:1 72:40 77:255 79:1 81:356 82:354 85:99 88:100 89:99 90:99 91:1 
0.02521609208250849 1:1 36:1 70:1 72:40 77:255 79:1 81:1190 82:1184 85:99 88:100 89:100 90:100 
0.03801776873586406 1:1 36:1 70:1 72:40 77:255 79:1 81:1588 82:1582 85:99 88:100 89:100 90:100 
0.0575300064483164 1:1 36:1 70:1 72:40 77:255 79:1 81:930 82:926 85:99 88:100 89:100 90:100 
0.07821730824600204 1:1 36:1 70:1 72:20 77:255 81:2832 82:2816 85:99 88:100 89:100 90:100 
0.6021750641820306 1:1 36:1 70:1 72:40 77:255 79:1 81:394 82:390 85:98 86:1 87:1 88:100 89:97 90:97 91:3 
0.2534577726099175 1:1 36:1 70:1 72:40 77:255 79:1 81:383 82:379 85:98 86:1 87:1 88:100 89:97 90:97 91:3 
0.3032540336580284 1:1 36:1 70:1 72:40 77:255 79:1 81:1564 82:1558 85:99 88:100 89:100 90:100 
0.0006797845210693154 1:1 36:1 70:1 72:40 77:255 79:1 81:858 82:854 85:99 88:100 89:100 90:100 
1 1:1 36:1 70:1 72:40 77:255 79:1 88:100 89:100 90:100 
0.2285108887042754 1:1 36:1 70:1 72:40 77:255 79:1 81:81 82:81 85:100 88:100 89:100 90:100 
0.04333095852531037 1:1 36:1 70:1 72:40 77:255 79:1 81:110 82:110 85:100 88:100 89:100 90:100 
0.7167577698120018 1:1 36:1 70:1 72:40 77:255 79:1 81:1545 82:1539 85:99 88:100 89:100 90:100 
1 1:1 36:1 70:1 72:40 77:255 79:1 81:2265 82:2254 85:99 88:100 89:100 90:100 
0.01316367170662433 1:1 36:1 70:1 72:40 77:255 79:1 81:1346 82:1340 85:99 88:100 89:100 90:100 
0.09869034093967538 1:1 36:1 70:1 72:40 77:255 79:1 81:949 82:944 85:99 88:100 89:99 90:99 91:1 
0.1284757979898811 1:1 36:1 70:1 72:40 77:255 79:1 81:834 82:830 85:99 88:100 89:100 90:100 
0.002300765216446016 1:1 36:1 70:1 72:40 77:255 79:1 81:129 82:129 85:100 88:100 89:100 90:100 
0.4938514429299379 1:1 36:1 70:1 72:40 77:255 79:1 81:1452 82:1446 85:99 88:100 89:98 90:98 91:2 
0.08424505363870999 1:1 36:1 70:1 72:40 77:255 79:1 81:1211 82:1205 85:99 88:100 89:100 90:100 
0.2325929940196763 1:1 36:1 70:1 72:40 77:255 79:1 81:669 82:665 85:99 88:100 89:100 90:100 
0.02215321822859247 1:1 36:1 60:1 72:40 77:255 79:1 81:746 82:743 85:99 88:100 89:100 90:100 
0.01548793551112682 1:1 36:1 70:1 72:40 77:255 79:1 81:507 82:503 85:99 88:100 89:100 90:100 
0.1954001402995701 1:1 36:1 70:1 72:40 77:255 79:1 81:1572 82:1566 85:99 88:100 89:100 90:100 
0.4578829921250273 1:1 36:1 70:1 72:40 77:255 79:1 81:252 82:251 85:99 88:100 89:99 90:99 91:1 
0.009114108396568897 1:1 36:1 70:1 72:40 77:255 79:1 81:548 82:544 85:99 88:100 89:100 90:100 
0.8973319683851174 1:1 36:1 70:1 72:40 77:255 79:1 81:1903 82:1895 85:99 88:100 89:99 90:99 91:1 
0.3085406855521687 1:1 36:1 70:1 72:40 77:255 79:1 81:1517 82:1511 85:99 88:100 89:100 90:100 
0.01364411064462991 1:1 36:1 70:1 72:40 77:255 79:1 81:991 82:986 85:99 88:100 89:99 90:99 91:1 
0.09162828556836192 1:1 36:1 70:1 72:40 77:255 79:1 81:405 82:401 85:99 88:100 89:97 90:97 91:3 
0.002222778610311473 1:1 36:1 70:1 72:40 77:255 79:1 81:600 82:596 85:99 88:100 89:100 90:100 
0.5291355525312096 1:1 36:1 70:1 72:40 77:255 79:1 81:487 82:483 85:99 88:100 89:100 90:100 
0.0386370041179805 1:1 36:1 70:1 72:40 77:255 79:1 81:138 82:138 85:100 88:100 89:100 90:100 
0.2772020363608355 1:1 36:1 70:1 72:40 77:255 79:1 81:676 82:672 85:99 88:100 89:100 90:100 
0.03207913460195608 1:1 36:1 70:1 72:40 77:255 79:1 81:1581 82:1575 85:99 88:100 89:100 90:100 
1 1:1 36:1 70:1 72:40 77:255 79:1 81:1973 82:1964 85:99 88:100 89:99 90:99 91:1 
0.2192173868119079 1:1 36:1 70:1 72:40 77:255 79:1 81:1972 82:1963 85:99 88:100 89:99 90:99 91:1 
0.005595046274835458 1:1 36:1 70:1 72:40 77:255 79:1 81:293 82:292 85:99 88:100 89:100 90:100 
0.002860589121063431 1:1 36:1 70:1 72:40 77:255 79:1 81:1555 82:1549 85:99 88:100 89:100 90:100 
0.2069742189685795 1:1 36:1 70:1 72:40 77:255 79:1 81:1451 82:1445 85:99 88:100 89:98 90:98 91:2 
0.03062197128187531 1:1 36:1 70:1 72:40 77:255 79:1 81:1303 82:1297 85:99 88:100 89:100 90:100 
0.1602167420129792 1:1 36:1 70:1 72:40 77:255 79:1 81:1166 82:1160 85:99 88:100 89:99 90:99 91:1 
0.2222520410666081 1:1 36:1 70:1 72:40 77:255 79:1 81:848 82:844 85:99 88:100 89:100 90:100 
0.002577897931313902 1:1 36:1 70:1 72:40 77:255 79:1 81:1639 82:1632 85:99 88:100 89:99 90:99 91:1 
0.002242438658529298 1:1 36:1 70:1 72:40 77:255 79:1 81:1731 82:1724 85:99 88:100 89:100 90:100 
0.2346120488839637 1:1 36:1 70:1 72:40 77:255 79:1 81:651 82:647 85:99 88:100 89:100 90:100 
0.162439471809743 1:1 36:1 70:1 72:40 77:255 79:1 81:1020 82:1015 85:99 88:100 89:100 90:100 
0.1798079404512659 1:1 36:1 70:1 72:40 77:255 79:1 81:1759 82:1752 85:99 88:100 89:100 90:100 
0.6535777017712945 1:1 36:1 70:1 72:20 77:255 81:3055 82:3037 85:99 88:100 89:99 90:99 91:1 
0.09735359636766026 1:1 36:1 70:1 72:40 77:255 79:1 81:94 82:94 85:100 88:100 89:100 90:100 
0.4152959804299439 1:1 36:1 70:1 72:40 77:255 79:1 81:316 82:314 85:99 88:100 89:99 90:99 91:1 
0.6591542338777867 1:1 36:1 70:1 72:40 77:255 79:1 81:1489 82:1483 85:99 88:100 89:100 90:100 
0.7540478734052146 1:1 36:1 70:1 72:40 77:255 79:1 81:552 82:548 85:99 88:100 89:100 90:100 
0.7352280612160219 1:1 36:1 70:1 72:40 77:255 79:1 81:277 82:276 85:99 88:100 89:100 90:100 
0.001597722975268612 1:1 36:1 70:1 72:40 77:255 79:1 81:274 82:273 85:99 88:100 89:100 90:100 
0.07260381460509596 1:1 36:1 70:1 72:40 77:255 79:1 81:295 82:294 85:99 88:100 89:100 90:100 
0.1876389513546667 1:1 36:1 70:1 72:40 77:255 79:1 81:931 82:927 85:99 88:100 89:100 90:100 
0.1298867004941135 1:1 36:1 70:1 72:40 77:255 79:1 81:985 82:980 85:99 88:100 89:99 90:99 91:1 
0.2861485339161307 1:1 36:1 70:1 72:40 77:255 79:1 81:1062 82:1056 85:99 88:100 89:99 90:99 91:1 
0.7559048690973179 1:1 36:1 70:1 72:40 77:255 79:1 81:913 82:909 85:99 88:100 89:100 90:100 
0.188621083305552 1:1 36:1 70:1 72:40 77:255 79:1 81:746 82:742 85:99 88:100 89:100 90:100 
0.03370945324733594 1:1 36:1 70:1 72:40 77:255 79:1 81:1213 82:1207 85:99 88:100 89:100 90:100 
0.2638571186284301 1:1 36:1 70:1 72:20 77:255 81:2870 82:2854 85:99 88:100 89:99 90:99 91:1 
0.01817204747784444 1:1 36:1 70:1 72:40 77:255 79:1 81:1061 82:1055 85:99 88:100 89:99 90:99 91:1 
0.05658243230260645 1:1 36:1 70:1 72:40 77:255 79:1 81:403 82:399 85:99 87:1 88:100 89:97 90:97 91:3 
0.001085423116634842 1:1 36:1 60:1 72:40 77:255 79:1 81:753 82:750 85:99 88:100 89:100 90:100 
0.05429425862832046 1:1 36:1 70:1 72:40 77:255 79:1 81:491 82:487 85:99 88:100 89:100 90:100 
0.007628650048573949 1:1 36:1 70:1 72:40 77:255 79:1 81:267 82:266 85:99 88:100 89:100 90:100 
0.0342204976840118 1:1 36:1 70:1 72:40 77:255 79:1 81:584 82:580 85:99 88:100 89:100 90:100 
0.2230216814712465 1:1 36:1 70:1 72:40 77:255 79:1 81:1551 82:1545 85:99 88:100 89:100 90:100 
0.4239182915917172 1:1 36:1 70:1 72:40 77:255 79:1 81:997 82:992 85:99 88:100 89:100 90:100 
0.03990543222513437 1:1 36:1 70:1 72:40 77:255 79:1 81:1305 82:1299 85:99 88:100 89:100 90:100 
0.002600859001985611 1:1 36:1 70:1 72:40 77:255 79:1 81:221 82:220 85:99 88:100 89:99 90:99 91:1 
0.005978531551510376 1:1 36:1 70:1 72:40 77:255 79:1 81:549 82:545 85:99 88:100 89:100 90:100 
0.3065847867384401 1:1 36:1 60:1 72:40 77:255 79:1 81:742 82:739 85:99 88:100 89:100 90:100 
0.5264503657569727 1:1 36:1 70:1 72:40 77:255 79:1 81:532 82:528 85:99 88:100 89:100 90:100 
0.1585452935375203 1:1 36:1 70:1 72:40 77:255 79:1 81:1744 82:1737 85:99 88:100 89:100 90:100 
0.02866348594466223 1:1 36:1 70:1 72:40 77:255 79:1 81:975 82:970 85:99 88:100 89:99 90:99 91:1 
0.03700889845645401 1:1 36:1 70:1 72:40 77:255 79:1 81:459 82:455 85:99 88:100 89:98 90:98 91:2 
0.2053046029163454 1:1 36:1 70:1 72:40 77:255 79:1 81:894 82:890 85:99 88:100 89:100 90:100 
0.5680370791007725 1:1 36:1 70:1 72:20 77:255 81:3048 82:3030 85:99 88:100 89:99 90:99 91:1 
0.4388328469965694 1:1 36:1 70:1 72:40 77:255 79:1 81:1614 82:1608 85:99 88:100 89:100 90:100 
0.2243781406099031 1:1 36:1 70:1 72:40 77:255 79:1 81:2117 82:2107 85:99 88:100 89:100 90:100 
0.2005059243524567 1:1 36:1 70:1 72:40 77:255 79:1 81:1371 82:1365 85:99 88:100 89:100 90:100 
0.1690636181245004 1:1 36:1 70:1 72:40 77:255 79:1 81:447 82:443 85:99 88:100 89:98 90:98 91:2 
0.2057545986543865 1:1 36:1 70:1 72:40 77:255 79:1 81:547 82:543 85:99 88:100 89:100 90:100 
0.4661387051316075 1:1 36:1 70:1 72:40 77:255 79:1 81:261 82:260 85:99 88:100 89:100 90:100 
0.3415558244129307 1:1 36:1 60:1 72:40 77:255 79:1 81:781 82:778 85:99 88:100 89:100 90:100 
0.3831485614964934 1:1 36:1 70:1 72:40 77:255 79:1 81:470 82:466 85:99 88:100 89:99 90:99 91:1 
0.4724534699276263 1:1 36:1 70:1 72:40 77:255 79:1 81:321 82:319 85:99 88:100 89:99 90:99 91:1 
0.3921888595892965 1:1 36:1 70:1 72:40 77:255 79:1 81:237 82:236 85:99 88:100 89:99 90:99 91:1 
0.6179793320582049 1:1 36:1 70:1 72:40 77:255 79:1 81:266 82:265 85:99 88:100 89:100 90:100 
0.002959494658148187 1:1 36:1 70:1 72:40 77:255 79:1 81:922 82:918 85:99 88:100 89:100 90:100 
0.4266873519182364 1:1 36:1 70:1 72:40 77:255 79:1 81:449 82:445 85:99 88:100 89:98 90:98 91:2 
0.3213278957396394 1:1 36:1 70:1 72:40 77:255 79:1 81:1271 82:1265 85:99 88:100 89:100 90:100 
0.7035874095728628 1:1 36:1 70:1 72:40 77:255 79:1 81:1336 82:1330 85:99 88:100 89:100 90:100 92:1 
0.01069254478571498 1:1 36:1 70:1 72:40 77:255 79:1 81:989 82:984 85:99 88:100 89:99 90:99 91:1 
0.3782158875208143 1:1 36:1 70:1 72:40 77:255 79:1 81:1713 82:1706 85:99 88:100 89:100 90:100 
0.09747185196743882 1:1 36:1 70:1 72:40 77:255 79:1 81:873 82:869 85:99 88:100 89:100 90:100 
0.6056079224067558 1:1 36:1 70:1 72:40 77:255 79:1 81:1353 82:1347 85:99 88:100 89:100 90:100 
0.3172163981568641 1:1 36:1 70:1 72:20 77:255 81:3071 82:3053 85:99 88:100 89:100 90:100 
0.114074026952849 1:1 36:1 70:1 72:40 77:255 79:1 81:47 82:47 85:100 88:100 89:100 90:100 
0.02410417379432163 1:1 36:1 70:1 72:40 77:255 79:1 81:339 82:337 85:99 88:100 89:99 90:99 91:1 
0.006257119562255681 1:1 36:1 70:1 72:40 77:255 79:1 81:970 82:965 85:99 88:100 89:99 90:99 91:1 
0.293698203612453 1:1 36:1 70:1 72:40 77:255 79:1 81:1723 82:1716 85:99 88:100 89:100 90:100 
0.0524620482976918 1:1 36:1 70:1 72:40 77:255 79:1 81:1803 82:1796 85:99 88:100 89:100 90:100 
0.639543600899584 1:1 36:1 70:1 72:40 77:255 79:1 81:2098 82:2088 85:99 88:100 89:99 90:99 91:1 
0.01132673321077167 1:1 36:1 60:1 72:40 77:255 79:1 81:792 82:789 85:99 88:100 89:100 90:100 
0.2896522391002253 1:1 36:1 70:1 72:40 77:255 79:1 81:1680 82:1673 85:99 88:100 89:100 90:100 
0.5283844672894825 1:1 36:1 70:1 72:40 77:255 79:1 81:1259 82:1253 85:99 88:100 89:100 90:100 
0.2942382834412591 1:1 36:1 70:1 72:40 77:255 79:1 81:219 82:218 85:99 88:100 89:99 90:99 91:1 
0.3965445177878849 1:1 36:1 70:1 72:40 77:255 79:1 81:690 82:686 85:99 88:100 89:100 90:100 
0.009632556037635551 1:1 36:1 70:1 72:40 77:255 79:1 81:984 82:979 85:99 88:100 89:99 90:99 91:1 
0.1737039218532384 1:1 36:1 60:1 72:40 77:255 79:1 81:795 82:792 85:99 88:100 89:100 90:100 
0.1641348227525682 1:1 36:1 70:1 72:40 77:255 79:1 81:307 82:306 85:99 88:100 89:100 90:100 
0.07698320642750392 1:1 36:1 70:1 72:40 77:255 79:1 81:833 82:829 85:99 88:100 89:100 90:100 
0.002431586611042146 1:1 36:1 70:1 72:40 77:255 79:1 81:1343 82:1337 85:99 88:100 89:100 90:100 
0.9301168944067186 1:1 36:1 70:1 72:40 77:255 79:1 81:2122 82:2112 85:99 88:100 89:100 90:100 
0.005948422656264899 1:1 36:1 70:1 72:40 77:255 79:1 81:890 82:886 85:99 88:100 89:100 90:100 
0.2273640845317363 1:1 36:1 70:1 72:40 77:255 79:1 81:1895 82:1887 85:99 88:100 89:99 90:99 91:1 
0.06662129050955092 1:1 36:1 70:1 72:40 77:255 79:1 81:19 82:19 85:100 88:100 89:100 90:100 
0.5409275044730982 1:1 36:1 70:1 72:40 77:255 79:1 81:1036 82:1030 85:99 88:100 89:99 90:99 91:1 
0.4781702806075966 1:1 36:1 70:1 72:40 77:255 79:1 81:1395 82:1389 85:99 88:100 89:100 90:100 
0.0726100359654035 1:1 36:1 70:1 72:40 77:255 79:1 81:729 82:725 85:99 88:100 89:100 90:100 
0.2727294427193551 1:1 36:1 70:1 72:40 77:255 79:1 81:88 82:88 85:100 88:100 89:100 90:100 
0.08116321119149991 1:1 36:1 70:1 72:40 77:255 79:1 81:853 82:849 85:99 88:100 89:100 90:100 
0.0241312836186463 1:1 36:1 70:1 72:40 77:255 79:1 81:1795 82:1788 85:99 88:100 89:100 90:100 
0.003428427938175427 1:1 36:1 70:1 72:40 77:255 79:1 81:823 82:819 85:99 88:100 89:100 90:100 
0.002902693564298842 1:1 36:1 70:1 72:40 77:255 79:1 81:785 82:781 85:99 88:100 89:100 90:100 
0.1315759931153803 1:1 36:1 70:1 72:40 77:255 79:1 81:391 82:387 85:98 86:1 87:1 88:100 89:97 90:97 91:3 
0.5976326314966501 1:1 36:1 70:1 72:40 77:255 79:1 81:1568 82:1562 85:99 88:100 89:100 90:100 
0.001326192891157224 1:1 36:1 70:1 72:40 77:255 79:1 81:1331 82:1325 85:99 88:100 89:100 90:100 
0.02550413194515104 1:1 36:1 70:1 72:40 77:255 79:1 81:633 82:629 85:99 88:100 89:100 90:100 
0.1809190839399501 1:1 36:1 70:1 72:40 77:255 79:1 81:229 82:228 85:99 88:100 89:99 90:99 91:1 
0.4500158624620754 1:1 36:1 70:1 72:40 77:255 79:1 81:1163 82:1157 85:99 88:100 89:99 90:99 91:1 
0.1106992355202267 1:1 36:1 70:1 72:40 77:255 79:1 81:390 82:386 85:98 86:1 87:1 88:100 89:97 90:97 91:3 
0.1700238586943717 1:1 36:1 70:1 72:40 77:255 79:1 81:1534 82:1528 85:99 88:100 89:100 90:100 
0.2065735601495598 1:1 36:1 70:1 72:40 77:255 79:1 81:63 82:63 85:100 88:100 89:100 90:100 
0.06694676898461316 1:1 36:1 60:1 72:40 77:255 79:1 81:765 82:762 85:99 88:100 89:100 90:100 
0.06242290118146612 1:1 36:1 70:1 72:40 77:255 79:1 81:1127 82:1121 85:99 88:100 89:99 90:99 91:1 
0.6830907239942431 1:1 36:1 70:1 72:40 77:255 79:1 81:1601 82:1595 85:99 88:100 89:100 90:100 
0.04812845250008504 1:1 36:1 70:1 72:40 77:255 79:1 81:71 82:71 85:100 88:100 89:100 90:100 
0.4185067076083573 1:1 36:1 70:1 72:40 77:255 79:1 81:1741 82:1734 85:99 88:100 89:100 90:100 
0.6946898649511202 1:1 36:1 70:1 72:40 77:255 79:1 81:1200 82:1194 85:99 88:100 89:100 90:100 
0.6344714201365973 1:1 36:1 70:1 72:40 77:255 79:1 81:223 82:222 85:99 88:100 89:99 90:99 91:1 
0.1055814229867291 1:1 36:1 70:1 72:40 77:255 79:1 81:524 82:520 85:99 88:100 89:100 90:100 
0.2018337094098133 1:1 36:1 70:1 72:40 77:255 79:1 81:963 82:958 85:99 88:100 89:99 90:99 91:1 
0.5667411695853433 1:1 36:1 70:1 72:40 77:255 79:1 81:1996 82:1987 85:99 88:100 89:98 90:98 91:2 
0.08067941285691838 1:1 36:1 70:1 72:40 77:255 79:1 81:1333 82:1327 85:99 88:100 89:100 90:100 
0.225719878018369 1:1 36:1 70:1 72:40 77:255 79:1 81:533 82:529 85:99 88:100 89:100 90:100 
0.1058768397746351 1:1 36:1 70:1 72:40 77:255 79:1 81:492 82:488 85:99 88:100 89:100 90:100 
0.04040915230230214 1:1 36:1 70:1 72:40 77:255 79:1 81:586 82:582 85:99 88:100 89:100 90:100 
0.05992977627186817 1:1 36:1 70:1 72:40 77:255 79:1 81:520 82:516 85:99 88:100 89:100 90:100 
0.01698554272778363 1:1 36:1 70:1 72:40 77:255 79:1 81:136 82:136 85:100 88:100 89:100 90:100 
0.5926316160934245 1:1 36:1 70:1 72:40 77:255 79:1 81:1810 82:1803 85:99 88:100 89:100 90:100 
0.2480628466263715 1:1 36:1 70:1 72:40 77:255 79:1 81:25 82:25 85:100 88:100 89:100 90:100 
0.3800745074534549 1:1 36:1 70:1 72:40 77:255 79:1 81:1889 82:1881 85:99 88:100 89:99 90:99 91:1 
0.530589898266413 1:1 36:1 60:1 72:40 77:255 79:1 81:839 82:836 85:99 88:100 89:100 90:100 
0.05429531546626994 1:1 36:1 70:1 72:40 77:255 79:1 81:461 82:457 85:99 88:100 89:98 90:98 91:2 
0.8061806688493351 1:1 36:1 70:1 72:40 77:255 79:1 81:2078 82:2068 85:99 88:100 89:99 90:99 91:1 
0.5376292284825861 1:1 36:1 70:1 72:40 77:255 79:1 81:1583 82:1577 85:99 88:100 89:100 90:100 
0.01739796523269992 1:1 36:1 70:1 72:40 77:255 79:1 81:455 82:451 85:99 88:100 89:98 90:98 91:2 
0.04401117592692454 1:1 36:1 70:1 72:40 77:255 79:1 81:1270 82:1264 85:99 88:100 89:100 90:100 
0.0009928704490304986 1:1 36:1 70:1 72:40 77:255 79:1 81:541 82:537 85:99 88:100 89:100 90:100 
0.7201359957843806 1:1 36:1 70:1 72:40 77:255 79:1 81:1328 82:1322 85:99 88:100 89:100 90:100 
0.9554562279801043 1:1 36:1 70:1 72:40 77:255 79:1 81:10 82:10 85:100 88:100 89:100 90:100 
0.6835708022494755 1:1 36:1 70:1 72:40 77:255 79:1 81:1299 82:1293 85:99 88:100 89:100 90:100 
0.009726720212916345 1:1 36:1 70:1 72:40 77:255 79:1 81:2104 82:2094 85:99 88:100 89:99 90:99 91:1 
0.03193932703160341 1:1 36:1 70:1 72:40 77:255 79:1 81:57 82:57 85:100 88:100 89:100 90:100 
0.4364796895053068 1:1 36:1 70:1 72:40 77:255 79:1 81:228 82:227 85:99 88:100 89:99 90:99 91:1 
0.4824303157957773 1:1 36:1 70:1 72:40 77:255 79:1 81:601 82:597 85:99 88:100 89:100 90:100 
0.564921905361348 1:1 36:1 70:1 72:40 77:255 79:1 81:1594 82:1588 85:99 88:100 89:100 90:100 
0.2370041177073086 1:1 36:1 60:1 72:40 77:255 79:1 81:760 82:757 85:99 88:100 89:100 90:100 
0.001125545997146472 1:1 36:1 70:1 72:40 77:255 79:1 81:1636 82:1629 85:99 88:100 89:99 90:99 91:1 
0.5995590084844217 1:1 36:1 70:1 72:40 77:255 79:1 81:1821 82:1814 85:99 88:100 89:100 90:100 
0.7399472655277894 1:1 36:1 70:1 72:40 77:255 79:1 81:643 82:639 85:99 88:100 89:100 90:100 
0.6115835254225938 1:1 36:1 70:1 72:40 77:255 79:1 81:614 82:610 85:99 88:100 89:100 90:100 
0.02914756920688513 1:1 36:1 70:1 72:40 77:255 79:1 81:1405 82:1399 85:99 88:100 89:100 90:100 
0.512922723525466 1:1 36:1 70:1 72:40 77:255 79:1 81:378 82:374 85:98 86:1 87:1 88:100 89:97 90:97 91:3 
0.1590423295137991 1:1 36:1 70:1 72:40 77:255 79:1 81:1485 82:1479 85:99 88:100 89:100 90:100 
0.07971005989396307 1:1 36:1 70:1 72:40 77:255 79:1 81:807 82:803 85:99 88:100 89:100 90:100 
0.05675831873538947 1:1 36:1 70:1 72:40 77:255 79:1 81:41 82:41 85:100 88:100 89:100 90:100 
0.4261579760477832 1:1 36:1 70:1 72:40 77:255 79:1 81:1667 82:1660 85:99 88:100 89:99 90:99 91:1 
0.3080980233845108 1:1 36:1 70:1 72:40 77:255 79:1 81:750 82:746 85:99 88:100 89:100 90:100 
0.2204706410539151 1:1 36:1 70:1 72:40 77:255 79:1 81:146 82:146 85:100 88:100 89:100 90:100 
0.6219955558058585 1:1 36:1 70:1 72:40 77:255 79:1 81:973 82:968 85:99 88:100 89:99 90:99 91:1 
0.1386713052578188 1:1 36:1 70:1 72:40 77:255 79:1 81:990 82:985 85:99 88:100 89:99 90:99 91:1 
0.006404166420168035 1:1 36:1 70:1 72:40 77:255 79:1 81:1310 82:1304 85:99 88:100 89:100 90:100 
0.4971301227412079 1:1 36:1 70:1 72:40 77:255 79:1 81:1242 82:1236 85:99 88:100 89:100 90:100 
1 1:1 36:1 70:1 72:40 77:255 79:1 81:1988 82:1979 85:99 88:100 89:98 90:98 91:2 
0.457178500101674 1:1 36:1 70:1 72:40 77:255 79:1 81:357 82:355 85:99 88:100 89:99 90:99 91:1 
0.5982526080729422 1:1 36:1 70:1 72:40 77:255 79:1 81:493 82:489 85:99 88:100 89:100 90:100 
0.3349855200256442 1:1 36:1 70:1 72:40 77:255 79:1 81:147 82:147 85:100 88:100 89:100 90:100 
0.004142268503364011 1:1 36:1 70:1 72:40 77:255 79:1 81:1834 82:1827 85:99 88:100 89:100 90:100 
0.7007817372497467 1:1 36:1 70:1 72:40 77:255 79:1 81:1157 82:1151 85:99 88:100 89:99 90:99 91:1 
0.2601557004833747 1:1 36:1 70:1 72:40 77:255 79:1 81:1732 82:1725 85:99 88:100 89:100 90:100 
0.4142557141911117 1:1 36:1 70:1 72:40 77:255 79:1 81:1263 82:1257 85:99 88:100 89:100 90:100 
0.2337311171555343 1:1 36:1 70:1 72:40 77:255 79:1 81:423 82:419 85:99 88:100 89:98 90:98 91:2 
0.049826037139564 1:1 36:1 70:1 72:40 77:255 79:1 81:1186 82:1180 85:99 88:100 89:100 90:100 
0.2256784548652593 1:1 36:1 70:1 72:40 77:255 79:1 81:140 82:140 85:100 88:100 89:100 90:100 
0.08034504907625195 1:1 36:1 70:1 72:40 77:255 79:1 81:1176 82:1170 85:99 88:100 89:100 90:100 
0.005343529644508355 1:1 36:1 70:1 72:40 77:255 79:1 81:1374 82:1368 85:99 88:100 89:100 90:100 
0.1438925587347131 1:1 36:1 70:1 72:40 77:255 79:1 81:1189 82:1183 85:99 88:100 89:100 90:100 
0.2731002930244215 1:1 36:1 70:1 72:40 77:255 79:1 81:1597 82:1591 85:99 88:100 89:100 90:100 
0.4123845247672374 1:1 36:1 70:1 72:40 77:255 79:1 81:1515 82:1509 85:99 88:100 89:100 90:100 
0.1702229011169913 1:1 36:1 60:1 72:40 77:255 79:1 81:769 82:766 85:99 88:100 89:100 90:100 
0.4019822061815616 1:1 36:1 70:1 72:40 77:255 79:1 81:726 82:722 85:99 88:100 89:100 90:100 
0.09356590763316155 1:1 36:1 60:1 72:40 77:255 79:1 81:745 82:742 85:99 88:100 89:100 90:100 
0.5857223488956749 1:1 36:1 70:1 72:40 77:255 79:1 81:76 82:76 85:100 88:100 89:100 90:100 
0.7010116038203404 1:1 36:1 70:1 72:40 77:255 79:1 81:442 82:438 85:99 88:100 89:98 90:98 91:2 
0.7853746240792142 1:1 36:1 70:1 72:40 77:255 79:1 81:1628 82:1621 85:99 88:100 89:99 90:99 91:1 
0.5350545463589952 1:1 36:1 70:1 72:40 77:255 79:1 81:589 82:585 85:99 88:100 89:100 90:100 
0.7191509348457713 1:1 36:1 70:1 72:40 77:255 79:1 81:1194 82:1188 85:99 88:100 89:100 90:100 
0.1449304721090942 1:1 36:1 70:1 72:40 77:255 79:1 81:1782 82:1775 85:99 88:100 89:100 90:100 
0.2047301380783245 1:1 36:1 70:1 72:40 77:255 79:1 81:610 82:606 85:99 88:100 89:100 90:100 
0.1625733926578314 1:1 36:1 70:1 72:40 77:255 79:1 81:974 82:969 85:99 88:100 89:99 90:99 91:1 
1 1:1 47:1 70:1 72:40 77:255 79:1 81:944 82:1 86:99 87:94300 88:100 91:100 
0.3664866932859336 1:1 36:1 70:1 72:40 77:255 79:1 81:735 82:731 85:99 88:100 89:100 90:100 
0.007458826005587102 1:1 36:1 70:1 72:40 77:255 79:1 81:1053 82:1047 85:99 88:100 89:99 90:99 91:1 
0.01399615315028804 1:1 36:1 70:1 72:40 77:255 79:1 81:232 82:231 85:99 88:100 89:99 90:99 91:1 
0.02289404265260725 1:1 36:1 70:1 72:40 77:255 79:1 81:535 82:531 85:99 88:100 89:100 90:100 
0.1052746317475671 1:1 36:1 70:1 72:40 77:255 79:1 81:896 82:892 85:99 88:100 89:100 90:100 
0.03794719799665797 1:1 36:1 70:1 72:40 77:255 79:1 81:679 82:675 85:99 88:100 89:100 90:100 
1 1:1 36:1 70:1 72:40 77:255 79:1 81:1854 82:1847 85:99 88:100 89:100 90:100 
0.3895516382637885 1:1 36:1 70:1 72:40 77:255 79:1 81:1275 82:1269 85:99 88:100 89:100 90:100 
0.08173628327694349 1:1 36:1 70:1 72:40 77:255 79:1 81:1823 82:1816 85:99 88:100 89:100 90:100 
0.01066600166242461 1:1 36:1 70:1 72:40 77:255 79:1 81:831 82:827 85:99 88:100 89:100 90:100 
0.03451745888079456 1:1 36:1 70:1 72:40 77:255 79:1 81:898 82:894 85:99 88:100 89:100 90:100 
0.7410265047778779 1:1 36:1 70:1 72:40 77:255 79:1 81:121 82:121 85:100 88:100 89:100 90:100 
0.09229298702748195 1:1 36:1 70:1 72:40 77:255 79:1 81:515 82:511 85:99 88:100 89:100 90:100 
0.4568835488647262 1:1 36:1 70:1 72:40 77:255 79:1 81:154 82:153 85:99 88:100 89:99 90:99 91:1 
0.335125011366887 1:1 36:1 70:1 72:40 77:255 79:1 81:634 82:630 85:99 88:100 89:100 90:100 
0.1402255039064652 1:1 36:1 70:1 72:40 77:255 79:1 81:789 82:785 85:99 88:100 89:100 90:100 
0.3245455631820799 1:1 36:1 70:1 72:40 77:255 79:1 81:1106 82:1100 85:99 88:100 89:99 90:99 91:1 
0.005473274866660639 1:1 36:1 70:1 72:40 77:255 79:1 81:1345 82:1339 85:99 88:100 89:100 90:100 
0.655008294134912 1:1 36:1 70:1 72:40 77:255 79:1 81:128 82:128 85:100 88:100 89:100 90:100 
0.5987172626130959 1:1 36:1 70:1 72:40 77:255 79:1 81:1094 82:1088 85:99 88:100 89:99 90:99 91:1 
0.534808623993525 1:1 36:1 70:1 72:40 77:255 79:1 81:1267 82:1261 85:99 88:100 89:100 90:100 
0.09438557400493455 1:1 36:1 60:1 72:40 77:255 79:1 81:764 82:761 85:99 88:100 89:100 90:100 
0.0804724540714986 1:1 36:1 70:1 72:40 77:255 79:1 81:818 82:814 85:99 88:100 89:100 90:100 
0.2228697852964065 1:1 36:1 70:1 72:40 77:255 79:1 81:607 82:603 85:99 88:100 89:100 90:100 
0.2545666878026556 1:1 36:1 70:1 72:40 77:255 79:1 81:1414 82:1408 85:99 88:100 89:100 90:100 
0.0550646353718946 1:1 36:1 70:1 72:40 77:255 79:1 81:1494 82:1488 85:99 88:100 89:100 90:100 
0.4398300071685912 1:1 36:1 70:1 72:40 77:255 79:1 81:22 82:22 85:100 88:100 89:100 90:100 
0.01511960415517281 1:1 36:1 70:1 72:40 77:255 79:1 81:1034 82:1028 85:99 88:100 89:99 90:99 91:1 
0.3655639029865863 1:1 36:1 70:1 72:40 77:255 79:1 81:585 82:581 85:99 88:100 89:100 90:100 
0.5940328673468306 1:1 36:1 70:1 72:40 77:255 79:1 81:622 82:618 85:99 88:100 89:100 90:100 
0.4383818796875362 1:1 36:1 70:1 72:40 77:255 79:1 81:213 82:212 85:99 88:100 89:99 90:99 91:1 
0.6393817025382595 1:1 36:1 70:1 72:40 77:255 79:1 81:1560 82:1554 85:99 88:100 89:100 90:100 
0.6275300175495307 1:1 36:1 70:1 72:40 77:255 79:1 81:665 82:661 85:99 88:100 89:100 90:100 
0.03097574730697522 1:1 36:1 70:1 72:40 77:255 79:1 81:2106 82:2096 85:99 88:100 89:99 90:99 91:1 
0.618108476570523 1:1 36:1 70:1 72:40 77:255 79:1 81:1292 82:1286 85:99 88:100 89:100 90:100 
0.228144136868031 1:1 36:1 70:1 72:40 77:255 79:1 81:1332 82:1326 85:99 88:100 89:100 90:100 
0.4277990857774299 1:1 36:1 70:1 72:40 77:255 79:1 81:415 82:411 85:99 88:100 89:97 90:97 91:3 
0.4510841414941915 1:1 36:1 70:1 72:40 77:255 79:1 81:1619 82:1613 85:99 88:100 89:100 90:100 
0.300162131459964 1:1 36:1 70:1 72:40 77:255 79:1 81:406 82:402 85:99 88:100 89:97 90:97 91:3 
0.002343760473020151 1:1 36:1 70:1 72:40 77:255 79:1 81:1831 82:1824 85:99 88:100 89:100 90:100 
0.01651352153926185 1:1 36:1 70:1 72:40 77:255 79:1 81:1565 82:1559 85:99 88:100 89:100 90:100 
0.01047938946511285 1:1 36:1 70:1 72:40 77:255 79:1 81:960 82:955 85:99 88:100 89:99 90:99 91:1 
0.4144632451423071 1:1 36:1 70:1 72:40 77:255 79:1 81:176 82:175 85:99 88:100 89:99 90:99 91:1 
0.01465040854505912 1:1 36:1 70:1 72:40 77:255 79:1 81:1316 82:1310 85:99 88:100 89:100 90:100 
0.6400169446446997 1:1 36:1 70:1 72:40 77:255 79:1 81:828 82:824 85:99 88:100 89:100 90:100 
0.4150737584645231 1:1 36:1 70:1 72:40 77:255 79:1 81:835 82:831 85:99 88:100 89:100 90:100 
0.003112918686552483 1:1 36:1 70:1 72:40 77:255 79:1 81:1004 82:999 85:99 88:100 89:100 90:100 
0.8755831889414818 1:1 36:1 70:1 72:40 77:255 79:1 81:2085 82:2075 85:99 88:100 89:99 90:99 91:1 
0.1500718575096866 1:1 36:1 70:1 72:40 77:255 79:1 81:485 82:481 85:99 88:100 89:100 90:100 
0.7240422335101651 1:1 36:1 70:1 72:20 77:255 81:3075 82:3057 85:99 88:100 89:100 90:100 
0.5691945855861756 1:1 36:1 70:1 72:40 77:255 79:1 81:558 82:554 85:99 88:100 89:100 90:100 
0.06963710692144851 1:1 36:1 70:1 72:40 77:255 79:1 81:218 82:217 85:99 88:100 89:99 90:99 91:1 
0.1313129173103871 1:1 36:1 70:1 72:40 77:255 79:1 81:272 82:271 85:99 88:100 89:100 90:100 
0.02810423005729872 1:1 36:1 70:1 72:40 77:255 79:1 81:603 82:599 85:99 88:100 89:100 90:100 
0.3191699353793673 1:1 36:1 70:1 72:40 77:255 79:1 81:166 82:165 85:99 88:100 89:99 90:99 91:1 
0.2705500964141888 1:1 36:1 70:1 72:40 77:255 79:1 81:1391 82:1385 85:99 88:100 89:100 90:100 
0.04063773300246979 1:1 36:1 70:1 72:40 77:255 79:1 81:692 82:688 85:99 88:100 89:100 90:100 
0.2102901156835369 1:1 36:1 70:1 72:40 77:255 79:1 81:506 82:502 85:99 88:100 89:100 90:100 
0.02945887891710332 1:1 36:1 70:1 72:40 77:255 79:1 81:1317 82:1311 85:99 88:100 89:100 90:100 
0.6315453311782608 1:1 36:1 70:1 72:40 77:255 79:1 81:436 82:432 85:99 88:100 89:98 90:98 91:2 
0.124860110233351 1:1 36:1 60:1 72:40 77:255 79:1 81:737 82:734 85:99 88:100 89:100 90:100 
0.5071077470316446 1:1 36:1 60:1 72:40 77:255 79:1 81:845 82:842 85:99 88:100 89:100 90:100 
0.09918837126396626 1:1 36:1 70:1 72:40 77:255 79:1 81:1578 82:1572 85:99 88:100 89:100 90:100 
0.006073721769808774 1:1 36:1 70:1 72:40 77:255 79:1 81:170 82:169 85:99 88:100 89:99 90:99 91:1 
1 1:1 36:1 70:1 72:20 77:255 81:3116 82:3098 85:99 88:100 89:100 90:100 
0.1896217346798059 1:1 36:1 70:1 72:40 77:255 79:1 81:240 82:239 85:99 88:100 89:99 90:99 91:1 
0.4800015270633474 1:1 36:1 70:1 72:40 77:255 79:1 81:1178 82:1172 85:99 88:100 89:100 90:100 
0.6380403856832372 1:1 36:1 70:1 72:40 77:255 79:1 81:1575 82:1569 85:99 88:100 89:100 90:100 
0.606712602344708 1:1 36:1 70:1 72:40 77:255 79:1 81:1832 82:1825 85:99 88:100 89:100 90:100 
0.1392697013339583 1:1 36:1 70:1 72:40 77:255 79:1 81:358 82:356 85:99 88:100 89:99 90:99 91:1 
0.1573329211931038 1:1 36:1 70:1 72:40 77:255 79:1 81:1533 82:1527 85:99 88:100 89:100 90:100 
0.00352690789037826 1:1 36:1 70:1 72:40 77:255 79:1 81:189 82:188 85:99 88:100 89:99 90:99 91:1 
0.6592547345408861 1:1 36:1 70:1 72:40 77:255 79:1 81:1348 82:1342 85:99 88:100 89:100 90:100 
0.4401971060789174 1:1 36:1 70:1 72:40 77:255 79:1 81:1897 82:1889 85:99 88:100 89:99 90:99 91:1 
0.1948726041186661 1:1 36:1 70:1 72:40 77:255 79:1 81:1484 82:1478 85:99 88:100 89:100 90:100 
0.1344007787777977 1:1 36:1 70:1 72:40 77:255 79:1 81:1040 82:1034 85:99 88:100 89:99 90:99 91:1 
0.3506682383550666 1:1 36:1 70:1 72:40 77:255 79:1 81:992 82:987 85:99 88:100 89:99 90:99 91:1 
0.04495235709542283 1:1 36:1 70:1 72:40 77:255 79:1 81:1904 82:1896 85:99 88:100 89:99 90:99 91:1 
0.5279414793273052 1:1 36:1 70:1 72:40 77:255 79:1 81:1783 82:1776 85:99 88:100 89:100 90:100 
0.3545574762872053 1:1 36:1 70:1 72:40 77:255 79:1 81:477 82:473 85:99 88:100 89:99 90:99 91:1 
0.4470704390988368 1:1 36:1 70:1 72:40 77:255 79:1 81:1457 82:1451 85:99 88:100 89:98 90:98 91:2 
0.282774728549765 1:1 36:1 70:1 72:40 77:255 79:1 81:2130 82:2120 85:99 88:100 89:100 90:100 
0.002386605550021497 1:1 36:1 70:1 72:40 77:255 79:1 81:498 82:494 85:99 88:100 89:100 90:100 
0.001273436827441985 1:1 36:1 70:1 72:40 77:255 79:1 81:1384 82:1378 85:99 88:100 89:100 90:100 
0.05908114047173751 1:1 36:1 70:1 72:40 77:255 79:1 81:1093 82:1087 85:99 88:100 89:99 90:99 91:1 
0.2225036919914727 1:1 36:1 70:1 72:40 77:255 79:1 81:1556 82:1550 85:99 88:100 89:100 90:100 
0.5693920454203767 1:1 36:1 70:1 72:40 77:255 79:1 81:100 82:100 85:100 88:100 89:100 90:100 
1 1:1 36:1 70:1 72:40 77:255 79:1 81:1864 82:1857 85:99 88:100 89:100 90:100 
0.05779286383456197 1:1 36:1 70:1 72:40 77:255 79:1 81:626 82:622 85:99 88:100 89:100 90:100 
0.1345624230207364 1:1 36:1 70:1 72:40 77:255 79:1 81:625 82:621 85:99 88:100 89:100 90:100 
0.006208827484608759 1:1 36:1 70:1 72:40 77:255 79:1 81:1416 82:1410 85:99 88:100 89:100 90:100 
0.2551857548317619 1:1 36:1 70:1 72:20 77:255 81:3041 82:3023 85:99 88:100 89:99 90:99 91:1 
0.3431429051077294 1:1 36:1 70:1 72:40 77:255 79:1 81:1520 82:1514 85:99 88:100 89:100 90:100 
0.09087302147039217 1:1 36:1 70:1 72:40 77:255 79:1 81:1694 82:1687 85:99 88:100 89:100 90:100 
0.02203142475758777 1:1 36:1 70:1 72:40 77:255 79:1 81:909 82:905 85:99 88:100 89:100 90:100 
0.0416197902031786 1:1 36:1 70:1 72:40 77:255 79:1 81:1113 82:1107 85:99 88:100 89:99 90:99 91:1 
1 1:1 36:1 70:1 72:40 77:255 79:1 81:2007 82:1998 85:99 88:100 89:98 90:98 91:2 
0.196917861600515 1:1 36:1 70:1 72:40 77:255 79:1 81:1689 82:1682 85:99 88:100 89:100 90:100 
0.04149002625627646 1:1 36:1 70:1 72:40 77:255 79:1 81:200 82:199 85:99 88:100 89:99 90:99 91:1 
0.4575335916942724 1:1 36:1 70:1 72:40 77:255 79:1 81:821 82:817 85:99 88:100 89:100 90:100 
0.5465309728224804 1:1 36:1 70:1 72:40 77:255 79:1 81:987 82:982 85:99 88:100 89:99 90:99 91:1 
0.5698010524185564 1:1 36:1 70:1 72:40 77:255 79:1 81:1505 82:1499 85:99 88:100 89:100 90:100 
0.008961213193725443 1:1 36:1 70:1 72:40 77:255 79:1 81:1240 82:1234 85:99 88:100 89:100 90:100 
0.04960881366095639 1:1 36:1 70:1 72:40 77:255 79:1 81:748 82:744 85:99 88:100 89:100 90:100 
0.007852783972519902 1:1 36:1 70:1 72:40 77:255 79:1 81:456 82:452 85:99 88:100 89:98 90:98 91:2 
0.001416207134483382 1:1 36:1 70:1 72:40 77:255 79:1 81:1216 82:1210 85:99 88:100 89:100 90:100 
0.01171560005410898 1:1 36:1 70:1 72:40 77:255 79:1 81:1281 82:1275 85:99 88:100 89:100 90:100 
0.430797135688018 1:1 36:1 70:1 72:40 77:255 79:1 81:961 82:956 85:99 88:100 89:99 90:99 91:1 
0.276664812606027 1:1 36:1 70:1 72:40 77:255 79:1 81:1911 82:1903 85:99 88:100 89:99 90:99 91:1 
0.2789052105090015 1:1 36:1 70:1 72:40 77:255 79:1 81:2 82:2 85:100 88:100 89:100 90:100 
0.7016467562335598 1:1 36:1 70:1 72:40 77:255 79:1 81:967 82:962 85:99 88:100 89:99 90:99 91:1 
0.3874126706528209 1:1 36:1 60:1 72:40 77:255 79:1 81:755 82:752 85:99 88:100 89:100 90:100 
0.008669325090298498 1:1 36:1 70:1 72:40 77:255 79:1 81:880 82:876 85:99 88:100 89:100 90:100 
0.2600240974046036 1:1 36:1 70:1 72:40 77:255 79:1 81:862 82:858 85:99 88:100 89:100 90:100 
0.6298316919908565 1:1 36:1 70:1 72:40 77:255 79:1 81:92 82:92 85:100 88:100 89:100 90:100 
0.02142964489119569 1:1 36:1 70:1 72:40 77:255 79:1 81:1477 82:1471 85:99 88:100 89:100 90:100 
0.1856135607417246 1:1 36:1 70:1 72:40 77:255 79:1 81:1179 82:1173 85:99 88:100 89:100 90:100 
0.04320582324510321 1:1 36:1 70:1 72:40 77:255 79:1 81:1492 82:1486 85:99 88:100 89:100 90:100 
0.5521633490433053 1:1 36:1 70:1 72:40 77:255 79:1 81:458 82:454 85:99 88:100 89:98 90:98 91:2 
0.1466312220854147 1:1 36:1 70:1 72:40 77:255 79:1 81:714 82:710 85:99 88:100 89:100 90:100 
0.2066804456901691 1:1 36:1 70:1 72:40 77:255 79:1 81:872 82:868 85:99 88:100 89:100 90:100 
0.71743884860424 1:1 36:1 70:1 72:40 77:255 79:1 81:2072 82:2062 85:99 88:100 89:99 90:99 91:1 
1 1:1 36:1 70:1 72:20 77:255 81:2822 82:2806 85:99 88:100 89:100 90:100 
0.5955651579782243 1:1 36:1 70:1 72:40 77:255 79:1 81:1102 82:1096 85:99 88:100 89:99 90:99 91:1 
0.001275648269685905 1:1 36:1 70:1 72:40 77:255 79:1 81:543 82:539 85:99 88:100 89:100 90:100 
0.1382221003730224 1:1 36:1 70:1 72:40 77:255 79:1 81:178 82:177 85:99 88:100 89:99 90:99 91:1 
1 1:1 36:1 70:1 72:40 77:255 79:1 81:1957 82:1948 85:99 88:100 89:99 90:99 91:1 
0.6072387726325411 1:1 36:1 70:1 72:40 77:255 79:1 81:1754 82:1747 85:99 88:100 89:100 90:100 
0.6415777501363958 1:1 36:1 70:1 72:40 77:255 79:1 81:1777 82:1770 85:99 88:100 89:100 90:100 
0.1249186943463643 1:1 36:1 70:1 72:40 77:255 79:1 81:1121 82:1115 85:99 88:100 89:99 90:99 91:1 
0.5139617394900746 1:1 36:1 70:1 72:40 77:255 79:1 81:197 82:196 85:99 88:100 89:99 90:99 91:1 
1 1:1 36:1 70:1 72:40 77:255 79:1 81:1 82:1 85:100 88:100 89:100 90:100 
0.7492308414761476 1:1 36:1 70:1 72:40 77:255 79:1 81:920 82:916 85:99 88:100 89:100 90:100 
0.4391375820391525 1:1 36:1 70:1 72:40 77:255 79:1 81:795 82:791 85:99 88:100 89:100 90:100 
0.4192656311905975 1:1 36:1 70:1 72:40 77:255 79:1 81:678 82:674 85:99 88:100 89:100 90:100 
0.5119493082418612 1:1 36:1 70:1 72:40 77:255 79:1 81:17 82:17 85:100 88:100 89:100 90:100 
0.1506152240897432 1:1 36:1 70:1 72:40 77:255 79:1 81:1272 82:1266 85:99 88:100 89:100 90:100 
0.4140058076383306 1:1 36:1 70:1 72:40 77:255 79:1 81:943 82:939 85:99 88:100 89:100 90:100 
0.7863730729809574 1:1 36:1 70:1 72:40 77:255 79:1 81:1003 82:998 85:99 88:100 89:100 90:100 
0.1076265333406574 1:1 36:1 60:1 72:40 77:255 79:1 81:797 82:794 85:99 88:100 89:100 90:100 
0.0382455236390359 1:1 36:1 70:1 72:40 77:255 79:1 81:1609 82:1603 85:99 88:100 89:100 90:100 
0.02462503952644465 1:1 36:1 70:1 72:40 77:255 79:1 81:1768 82:1761 85:99 88:100 89:100 90:100 
0.2281941563482444 1:1 36:1 70:1 72:40 77:255 79:1 81:82 82:82 85:100 88:100 89:100 90:100 
0.0058789551312422 1:1 36:1 70:1 72:40 77:255 79:1 81:1069 82:1063 85:99 88:100 89:99 90:99 91:1 
0.02816936972879512 1:1 36:1 70:1 72:40 77:255 79:1 81:49 82:49 85:100 88:100 89:100 90:100 
0.02613732802296107 1:1 36:1 70:1 72:40 77:255 79:1 81:1563 82:1557 85:99 88:100 89:100 90:100 
0.0755468016263655 1:1 36:1 60:1 72:40 77:255 79:1 81:799 82:796 85:99 88:100 89:100 90:100 
0.4453441511765629 1:1 36:1 70:1 72:40 77:255 79:1 81:342 82:340 85:99 88:100 89:99 90:99 91:1 
0.3539474020332399 1:1 36:1 70:1 72:40 77:255 79:1 81:425 82:421 85:99 88:100 89:98 90:98 91:2 
0.4872863350203217 1:1 36:1 70:1 72:40 77:255 79:1 81:1677 82:1670 85:99 88:100 89:100 90:100 
0.03311965957356508 1:1 36:1 70:1 72:40 77:255 79:1 81:1833 82:1826 85:99 88:100 89:100 90:100 
0.1232721113561749 1:1 36:1 70:1 72:40 77:255 79:1 81:1634 82:1627 85:99 88:100 89:99 90:99 91:1 
0.01325911572402143 1:1 36:1 70:1 72:40 77:255 79:1 81:1778 82:1771 85:99 88:100 89:100 90:100 
0.7289853677058562 1:1 36:1 70:1 72:40 77:255 79:1 81:900 82:896 85:99 88:100 89:100 90:100 
0.1526344416860883 1:1 36:1 70:1 72:40 77:255 79:1 81:1295 82:1289 85:99 88:100 89:100 90:100 
0.2504983539940918 1:1 36:1 70:1 72:40 77:255 79:1 81:1840 82:1833 85:99 88:100 89:100 90:100 
0.7606134939508117 1:1 36:1 70:1 72:40 77:255 79:1 81:539 82:535 85:99 88:100 89:100 90:100 
0.3329827682339687 1:1 36:1 70:1 72:40 77:255 79:1 81:399 82:395 85:98 86:1 87:1 88:100 89:97 90:97 91:3 
0.06036049581649339 1:1 36:1 70:1 72:40 77:255 79:1 81:1325 82:1319 85:99 88:100 89:100 90:100 
0.4777698653379022 1:1 36:1 70:1 72:40 77:255 79:1 81:309 82:308 85:99 88:100 89:100 90:100 
0.585374514698778 1:1 36:1 70:1 72:40 77:255 79:1 81:1530 82:1524 85:99 88:100 89:100 90:100 
0.0337149093594581 1:1 36:1 70:1 72:40 77:255 79:1 81:562 82:558 85:99 88:100 89:100 90:100 
0.166454219473551 1:1 36:1 70:1 72:40 77:255 79:1 81:1887 82:1880 85:99 88:100 89:100 90:100 
0.4662858561683361 1:1 36:1 70:1 72:40 77:255 79:1 81:468 82:464 85:99 88:100 89:98 90:98 91:2 
0.7768488199205972 1:1 36:1 70:1 72:40 77:255 79:1 81:512 82:508 85:99 88:100 89:100 90:100 
0.1920969800505995 1:1 36:1 70:1 72:20 77:255 81:2861 82:2845 85:99 88:100 89:100 90:100 
0.1557021523868236 1:1 36:1 70:1 72:40 77:255 79:1 81:755 82:751 85:99 88:100 89:100 90:100 
0.4089638460401367 1:1 36:1 70:1 72:40 77:255 79:1 81:1846 82:1839 85:99 88:100 89:100 90:100 
0.7769552641924443 1:1 36:1 70:1 72:40 77:255 79:1 81:2092 82:2082 85:99 88:100 89:99 90:99 91:1 
0.6229211308581264 1:1 36:1 70:1 72:40 77:255 79:1 81:299 82:298 85:99 88:100 89:100 90:100 
0.05562031729391414 1:1 36:1 70:1 72:40 77:255 79:1 81:1318 82:1312 85:99 88:100 89:100 90:100 
0.01209703317664672 1:1 36:1 70:1 72:40 77:255 79:1 81:671 82:667 85:99 88:100 89:100 90:100 
0.438090846496231 1:1 36:1 70:1 72:40 77:255 79:1 81:1657 82:1650 85:99 88:100 89:99 90:99 91:1 
0.3580776885350638 1:1 36:1 70:1 72:40 77:255 79:1 81:2110 82:2100 85:99 88:100 89:99 90:99 91:1 
0.008431732115890376 1:1 36:1 70:1 72:40 77:255 79:1 81:220 82:219 85:99 88:100 89:99 90:99 91:1 
0.4451247544331819 1:1 36:1 60:1 72:40 77:255 79:1 81:775 82:772 85:99 88:100 89:100 90:100 
0.01390858699557726 1:1 36:1 70:1 72:40 77:255 79:1 81:616 82:612 85:99 88:100 89:100 90:100 
0.2031659734025523 1:1 36:1 70:1 72:20 77:255 81:3081 82:3063 85:99 88:100 89:100 90:100 
0.002000976623557123 1:1 36:1 70:1 72:40 77:255 79:1 81:270 82:269 85:99 88:100 89:100 90:100 
0.04708600766039114 1:1 36:1 70:1 72:40 77:255 79:1 81:1262 82:1256 85:99 88:100 89:100 90:100 
0.7482689954192872 1:1 36:1 70:1 72:40 77:255 79:1 81:499 82:495 85:99 88:100 89:100 90:100 
0.5289752549346648 1:1 36:1 70:1 72:40 77:255 79:1 81:68 82:68 85:100 88:100 89:100 90:100 
0.07251414261659572 1:1 36:1 70:1 72:40 77:255 79:1 81:786 82:782 85:99 88:100 89:100 90:100 
0.6518231096495872 1:1 36:1 70:1 72:40 77:255 79:1 81:1284 82:1278 85:99 88:100 89:100 90:100 
0.004651054423565813 1:1 36:1 70:1 72:40 77:255 79:1 81:826 82:822 85:99 88:100 89:100 90:100 
0.3239218502775837 1:1 36:1 70:1 72:40 77:255 79:1 81:1844 82:1837 85:99 88:100 89:100 90:100 
0.7548304432962503 1:1 36:1 70:1 72:20 77:255 81:2855 82:2839 85:99 88:100 89:100 90:100 
0.6246830773417826 1:1 36:1 70:1 72:40 77:255 79:1 81:1118 82:1112 85:99 88:100 89:99 90:99 91:1 
0.07813005364446389 1:1 36:1 70:1 72:40 77:255 79:1 81:1223 82:1217 85:99 88:100 89:100 90:100 
0.1589320659273647 1:1 36:1 70:1 72:40 77:255 79:1 81:1435 82:1429 85:99 88:100 89:99 90:99 91:1 
0.4429021403190169 1:1 36:1 70:1 72:40 77:255 79:1 81:1705 82:1698 85:99 88:100 89:100 90:100 
0.03197773503428051 1:1 36:1 70:1 72:40 77:255 79:1 81:668 82:664 85:99 88:100 89:100 90:100 
0.04005189360499926 1:1 36:1 70:1 72:40 77:255 79:1 81:1373 82:1367 85:99 88:100 89:100 90:100 
1 1:1 36:1 70:1 72:20 77:255 81:3040 82:3022 85:99 88:100 89:99 90:99 91:1 
0.4839625641620772 1:1 36:1 70:1 72:40 77:255 79:1 81:597 82:593 85:99 88:100 89:100 90:100 
0.2810898656326647 1:1 36:1 70:1 72:40 77:255 79:1 81:2107 82:2097 85:99 88:100 89:99 90:99 91:1 
0.5721482819098266 1:1 36:1 70:1 72:40 77:255 79:1 81:463 82:459 85:99 88:100 89:98 90:98 91:2 
0.04812248652060418 1:1 36:1 70:1 72:40 77:255 79:1 81:87 82:87 85:100 88:100 89:100 90:100 
0.03370550533619356 1:1 36:1 70:1 72:40 77:255 79:1 81:1781 82:1774 85:99 88:100 89:100 90:100 
0.7527840982766121 1:1 36:1 70:1 72:40 77:255 79:1 81:107 82:107 85:100 88:100 89:100 90:100 
0.3598680737302649 1:1 36:1 70:1 72:40 77:255 79:1 81:1447 82:1441 85:99 88:100 89:98 90:98 91:2 
0.0007785097814609898 1:1 36:1 70:1 72:40 77:255 79:1 81:1675 82:1668 85:99 88:100 89:100 90:100 
0.1775050926264714 1:1 36:1 70:1 72:40 77:255 79:1 81:2054 82:2044 85:99 88:100 89:97 90:97 91:3 
0.1003015038820164 1:1 36:1 70:1 72:40 77:255 79:1 81:924 82:920 85:99 88:100 89:100 90:100 
0.004262713046344679 1:1 36:1 70:1 72:40 77:255 79:1 81:1629 82:1622 85:99 88:100 89:99 90:99 91:1 
0.619046133709339 1:1 36:1 70:1 72:40 77:255 79:1 81:637 82:633 85:99 88:100 89:100 90:100 
0.1202394342853961 1:1 36:1 70:1 72:40 77:255 79:1 81:1633 82:1626 85:99 88:100 89:99 90:99 91:1 
0.20682478721543 1:1 36:1 70:1 72:40 77:255 79:1 81:1164 82:1158 85:99 88:100 89:99 90:99 91:1 
0.8065294637340756 1:1 36:1 70:1 72:40 77:255 79:1 81:980 82:975 85:99 88:100 89:99 90:99 91:1 
0.3690465872004831 1:1 36:1 70:1 72:40 77:255 79:1 81:56 82:56 85:100 88:100 89:100 90:100 
0.3020632845679688 1:1 36:1 60:1 72:40 77:255 79:1 81:728 82:725 85:99 88:100 89:100 90:100 
0.09162983255388113 1:1 36:1 70:1 72:40 77:255 79:1 81:1804 82:1797 85:99 88:100 89:100 90:100 
0.4426198067866163 1:1 36:1 70:1 72:40 77:255 79:1 81:337 82:335 85:99 88:100 89:99 90:99 91:1 
0.4255028664322459 1:1 36:1 70:1 72:40 77:255 79:1 81:1172 82:1166 85:99 88:100 89:100 90:100 
0.5692620425653478 1:1 36:1 70:1 72:40 77:255 79:1 81:1358 82:1352 85:99 88:100 89:100 90:100 
0.4622973261570758 1:1 36:1 70:1 72:40 77:255 79:1 81:37 82:37 85:100 88:100 89:100 90:100 
0.05439932185967769 1:1 36:1 70:1 72:40 77:255 79:1 81:1019 82:1014 85:99 88:100 89:100 90:100 
0.5463006623991965 1:1 36:1 70:1 72:40 77:255 79:1 81:1607 82:1601 85:99 88:100 89:100 90:100 
0.555216583578229 1:1 36:1 70:1 72:40 77:255 79:1 81:1719 82:1712 85:99 88:100 89:100 90:100 
0.01406255388576357 1:1 36:1 70:1 72:40 77:255 79:1 81:454 82:450 85:99 88:100 89:98 90:98 91:2 
0.5471898307165338 1:1 36:1 70:1 72:40 77:255 79:1 81:1772 82:1765 85:99 88:100 89:100 90:100 
0.3007942173042272 1:1 36:1 70:1 72:40 77:255 79:1 81:707 82:703 85:99 88:100 89:100 90:100 
0.7049315348601174 1:1 36:1 70:1 72:40 77:255 79:1 81:1056 82:1050 85:99 88:100 89:99 90:99 91:1 
0.2326234672164832 1:1 36:1 70:1 72:40 77:255 79:1 81:687 82:683 85:99 88:100 89:100 90:100 
0.2921720869042747 1:1 36:1 70:1 72:40 77:255 79:1 81:2063 82:2053 85:99 88:100 89:98 90:98 91:2 
0.4845046618175523 1:1 36:1 70:1 72:40 77:255 79:1 81:860 82:856 85:99 88:100 89:100 90:100 
0.4954988586764567 1:1 36:1 70:1 72:40 77:255 79:1 81:244 82:243 85:99 88:100 89:99 90:99 91:1 
0.07473655647435398 1:1 36:1 70:1 72:40 77:255 79:1 81:1382 82:1376 85:99 88:100 89:100 90:100 
0.6445030079950932 1:1 36:1 70:1 72:40 77:255 79:1 81:565 82:561 85:99 88:100 89:100 90:100 
0.2508956801414196 1:1 36:1 70:1 72:40 77:255 79:1 81:802 82:798 85:99 88:100 89:100 90:100 
0.7279437883282052 1:1 36:1 70:1 72:40 77:255 79:1 81:1641 82:1634 85:99 88:100 89:99 90:99 91:1 
0.3751794461235504 1:1 36:1 70:1 72:40 77:255 79:1 81:1893 82:1885 85:99 88:100 89:99 90:99 91:1 
0.03686538276198002 1:1 36:1 60:1 72:40 77:255 79:1 81:766 82:763 85:99 88:100 89:100 90:100 
0.6986288487308071 1:1 36:1 70:1 72:40 77:255 79:1 81:1387 82:1381 85:99 88:100 89:100 90:100 
0.0283213704975033 1:1 36:1 70:1 72:40 77:255 79:1 81:284 82:283 85:99 88:100 89:100 90:100 
0.581292928725191 1:1 36:1 70:1 72:40 77:255 79:1 81:855 82:851 85:99 88:100 89:100 90:100 
0.3726091382288017 1:1 36:1 70:1 72:40 77:255 79:1 81:259 82:258 85:99 88:100 89:100 90:100 
0.6030702176625743 1:1 36:1 70:1 72:40 77:255 79:1 81:1589 82:1583 85:99 88:100 89:100 90:100 
0.009699815360214342 1:1 36:1 60:1 72:40 77:255 79:1 81:730 82:727 85:99 88:100 89:100 90:100 
0.7149665429779772 1:1 36:1 70:1 72:40 77:255 79:1 81:629 82:625 85:99 88:100 89:100 90:100 
0.5022688779995637 1:1 36:1 70:1 72:40 77:255 79:1 81:957 82:952 85:99 88:100 89:99 90:99 91:1 
0.3652279501364634 1:1 36:1 70:1 72:40 77:255 79:1 81:162 82:161 85:99 88:100 89:99 90:99 91:1 
0.7301902372545926 1:1 36:1 70:1 72:40 77:255 79:1 81:1342 82:1336 85:99 88:100 89:100 90:100 
0.6238057650086414 1:1 36:1 70:1 72:40 77:255 79:1 81:44 82:44 85:100 88:100 89:100 90:100 
0.3377146110537229 1:1 36:1 60:1 72:40 77:255 79:1 81:749 82:746 85:99 88:100 89:100 90:100 
0.611269354310231 1:1 36:1 70:1 72:40 77:255 79:1 81:1218 82:1212 85:99 88:100 89:100 90:100 
1 0:6 1:1 19:1 59:1 72:208 77:64 78:45 79:3 80:2 81:1 82:1 85:100 88:7 89:54 90:100 93:87 
0.6856399508988007 1:1 36:1 70:1 72:40 77:255 79:1 81:289 82:288 85:99 88:100 89:100 90:100 
0.7137534848689499 1:1 36:1 70:1 72:40 77:255 79:1 81:1799 82:1792 85:99 88:100 89:100 90:100 
0.6124129455307374 1:1 36:1 70:1 72:40 77:255 79:1 81:1684 82:1677 85:99 88:100 89:100 90:100 
-0.4861557427637915 1:1 20:1 65:1 72:604 77:64 78:56 79:8 80:9 88:13 89:32 90:46 91:53 93:81 
-0.4828153942086898 1:1 20:1 59:1 72:620 77:64 78:56 79:11 80:8 81:9 82:11 85:68 86:31 87:45 88:14 89:27 90:100 93:48 
-0.3789878620383048 2:1 11:1 59:1 72:16 77:63 78:64 80:1 81:6 82:6 85:100 88:12 89:8 90:66 91:33 92:6 
-0.1799765648849913 2:1 11:1 59:1 72:16 77:64 78:64 80:1 88:13 89:15 90:100 93:13 
-0.4518369780373856 2:1 11:1 59:1 72:16 77:63 78:64 80:1 81:3 82:2 85:66 86:33 87:50 88:76 89:38 90:31 91:68 92:12 93:36 
-0.2858532632857523 0:6 1:1 19:1 59:1 72:208 77:64 78:40 79:3 80:2 88:3 89:52 90:100 93:94 
-0.4862755827297255 2:1 11:1 59:1 72:16 77:64 78:63 80:1 81:5 82:5 85:55 86:44 87:80 88:15 89:31 90:100 93:51 
-0.1587180882786218 2:1 11:1 59:1 72:16 77:64 78:64 80:1 82:3 85:100 89:11 92:3 93:100 
-0.3129539047323084 2:1 11:1 59:1 72:16 77:64 78:64 80:1 81:6 82:4 85:66 86:33 87:50 88:18 89:35 90:50 91:50 92:7 93:74 
-0.4868575393305284 0:241 1:1 19:1 59:1 72:688 77:64 78:55 79:10 80:10 82:7 85:77 86:22 87:28 89:63 93:100 
-0.4864215836645523 0:4 1:1 20:1 59:1 72:368 77:64 78:45 79:8 80:8 88:6 89:15 90:100 93:60 
-0.4863424593677166 0:61 1:1 19:1 59:1 72:648 73:40 77:64 78:45 79:11 80:9 86:100 89:52 93:100 
-0.4390709899181842 2:1 11:1 59:1 72:16 77:64 78:64 80:1 81:2 82:2 85:40 86:60 87:150 88:18 89:19 90:100 93:5 
-0.4868071160503534 1:1 20:1 59:1 72:588 77:64 78:44 79:11 80:7 81:4 82:4 85:50 86:50 87:100 88:31 89:57 90:80 91:19 93:56 
-0.3633447798217573 2:1 11:1 59:1 72:16 77:63 78:64 80:1 88:19 89:17 90:89 91:10 92:11 
-0.4862999500517184 1:1 19:1 60:1 72:32 77:64 89:58 93:100 
-0.1178428293804972 0:5 1:1 19:1 59:1 72:144 77:64 78:231 79:3 80:2 81:1 82:3 85:100 88:6 89:59 90:100 93:89 
-0.4847474050468747 0:250 1:1 19:1 59:1 72:688 77:64 78:54 79:10 80:10 88:4 89:55 90:50 91:50 93:96 
-0.1193841117587753 0:1 1:1 19:1 59:1 72:336 77:64 78:45 79:4 80:5 81:4 82:5 85:100 88:15 89:80 90:100 93:81 
-0.477513128111457 2:1 11:1 59:1 72:16 77:64 78:64 80:1 86:100 88:30 89:35 90:36 91:63 92:7 93:68 
-0.1347141476144449 2:1 11:1 59:1 72:16 77:64 78:64 80:1 88:8 89:15 90:100 93:46 
-0.4860582836629176 0:5 1:1 19:1 59:1 72:1200 77:64 78:52 79:14 80:22 81:2 82:2 85:40 86:60 87:150 88:3 89:71 90:100 93:95 
-0.486072633283579 1:1 19:1 59:1 72:336 77:45 78:64 79:4 80:5 88:95 89:50 90:51 91:48 92:4 93:2 
-0.4863154187585237 0:5 1:1 19:1 59:1 72:168 73:40 77:64 78:54 79:4 80:1 81:1 82:2 85:66 86:33 87:50 88:3 89:63 90:100 93:95 
-0.3986809564302816 0:15 1:1 19:1 63:1 72:200 77:64 79:4 88:16 89:61 90:100 93:73 94:75 95:22 
-0.4863020178477289 0:14 1:1 19:1 59:1 72:192 77:64 78:56 79:2 80:3 82:1 85:50 86:50 87:100 88:1 89:15 91:100 93:100 
-0.4200653667668327 0:6 1:1 19:1 59:1 72:208 77:64 78:39 79:3 80:2 81:1 82:1 85:100 88:3 89:66 90:100 93:95 
-0.2604221069988917 0:5 1:1 19:1 59:1 72:152 77:64 78:54 79:3 80:2 82:3 85:100 88:13 89:80 90:100 93:83 
-0.4007251942957045 2:1 11:1 59:1 72:16 77:64 78:63 80:1 86:100 89:25 93:100 
-0.3240030729859257 2:1 36:1 59:1 72:16 77:64 79:1 86:100 89:1 93:100 
-0.4861689462516257 1:1 20:1 59:1 72:588 77:64 78:54 79:10 80:8 81:1 82:6 85:30 86:70 87:233 88:2 89:35 90:100 93:94 95:2 
-0.4863192630470692 1:1 20:1 59:1 72:600 73:40 77:64 78:55 79:12 80:8 82:8 85:50 86:50 87:100 88:1 89:35 91:100 93:100 95:2 
-0.2102433426369501 2:1 11:1 59:1 72:16 77:64 78:64 80:1 86:100 88:14 89:16 90:100 93:12 
-0.4862294765471374 2:1 11:1 59:1 72:16 77:64 78:64 80:1 86:100 88:5 89:25 90:80 91:20 93:84 
-0.4866200820640055 2:1 11:1 59:1 72:16 77:64 78:64 80:1 82:1 85:50 86:50 87:100 88:1 89:13 91:100 92:1 93:100 
-0.4859714751923055 0:15 1:1 19:1 59:1 72:360 73:40 77:64 78:57 79:6 80:5 82:1 85:100 89:49 93:100 
-0.4863379406124751 0:5 1:1 19:1 59:1 72:280 77:64 78:49 79:4 80:3 88:3 89:79 90:100 93:96 
-0.4861983507800844 1:1 19:1 59:1 72:336 77:64 78:53 79:4 80:5 86:100 89:57 93:100 
-0.04455058187992744 2:1 11:1 59:1 72:16 77:64 78:54 80:1 89:2 93:100 
-0.4860769347926791 0:15 1:1 20:1 65:1 72:444 77:64 78:55 79:6 80:6 82:5 85:41 86:58 87:140 89:42 93:100 
-0.4866014540587602 1:1 19:1 59:1 72:336 77:64 78:45 79:4 80:5 82:4 85:44 86:55 87:125 89:48 93:100 95:6 
-0.4863088304857419 0:5 1:1 19:1 59:1 72:1480 73:40 77:64 78:52 79:24 80:22 82:4 85:100 89:50 93:100 95:4 
-0.4862718972504904 2:1 36:1 59:1 72:16 77:64 79:1 81:1 82:1 85:20 86:80 87:400 88:1 89:2 90:100 92:1 93:50 
-0.4520778334058324 0:6 1:1 19:1 59:1 72:208 77:64 78:40 79:3 80:2 82:2 85:33 86:66 87:200 88:2 89:52 90:100 93:96 
-0.3527878490107695 2:1 11:1 59:1 72:16 77:64 78:64 80:1 81:1 86:100 88:23 89:21 91:100 92:9 93:100 
-0.4866453160066109 0:7 1:1 20:1 59:1 72:116 77:53 78:64 79:1 80:2 86:100 88:22 89:11 90:27 91:72 93:45 
-0.4866107950359917 0:4 1:1 20:1 59:1 72:1248 77:64 78:45 79:23 80:37 88:4 89:13 90:100 93:69 
-0.403901796656769 0:1 1:1 19:1 59:1 72:336 77:64 78:45 79:4 80:5 81:2 82:2 85:100 88:25 89:81 90:100 93:69 
-0.4862360122733566 0:12 1:1 20:1 59:1 72:164 77:64 78:49 79:2 80:2 89:42 93:100 95:2 
-0.309228226957853 2:1 11:1 59:1 72:16 77:64 78:64 80:1 86:100 88:20 89:21 90:100 93:4 
-0.4866757059692525 0:11 1:1 19:1 59:1 72:1312 77:64 78:109 79:32 80:31 82:1 85:100 89:57 93:100 
-0.253401706970083 2:1 11:1 59:1 72:16 77:64 78:64 80:1 81:1 82:1 85:16 86:83 87:500 88:33 89:36 90:100 93:8 
-0.4863120189567937 0:5 1:1 19:1 59:1 72:336 77:64 78:45 79:4 80:5 82:6 85:85 86:14 87:16 89:66 93:100 
