solver_type L2R_L2LOSS_SVC
nr_class 2
label 1 -1
nr_feature 96
bias -1
w
0.0002013065975508659 
-1.556775914011813e-05 
7.991973446954091e-05 
0 
0 
0 
0 
0 
0 
0 
0 
6.919889525002606e-05 
0 
0 
0 
0 
0 
0 
0 
1.212377582411198e-05 
2.912435496648739e-06 
0 
0 
0 
0 
0 
3.026284258110217e-09 
0 
3.87074264282421e-06 
0 
0 
5.727555512926838e-07 
0 
0 
0 
1.478034956450207e-06 
-2.570125785908971e-05 
0 
0 
0 
0 
3.233046845502546e-10 
0 
0 
-1.035075465714209e-07 
0 
1.816465855714799e-07 
-3.821939099800611e-08 
0 
0 
0 
0 
0 
0 
-6.299944675309358e-08 
-8.367632303302509e-08 
0 
0 
0 
9.192497358449542e-05 
7.658399247467852e-07 
0 
0 
1.572708307963667e-06 
0 
7.121668921934458e-07 
2.76432743818201e-08 
0 
0 
0 
-3.07632420599003e-05 
0 
0.001808551496119577 
1.611300157878127e-05 
0 
0 
0 
-0.001910980980112851 
0.005206449483312672 
1.751704215475594e-05 
9.623174694557464e-05 
-0.003112433279074302 
-0.002966610360544919 
1.244495573267584e-05 
1.798356664066347e-05 
-0.0004036482737263393 
0.002793843185358528 
2.268374034902646e-05 
-0.001619496740419569 
-0.0006496275303099362 
0.003609729701870882 
0.001461212913234286 
0.0002120727455069007 
0.004736275847106789 
6.444330139061411e-05 
2.325488138701899e-05 
