solver_type L2R_L2LOSS_SVC
nr_class 2
label 1 -1
nr_feature 96
bias -1
w
0.0004514359319893061 
5.110498970180835e-06 
0.0001228141856419517 
-1.946394266229171e-06 
0 
-6.071125685398474e-08 
-3.219977862280439e-08 
-7.139479287108648e-11 
-7.203724125771801e-11 
-3.613845868921005e-08 
-8.813879802229139e-08 
7.263384364913503e-05 
-1.644517945768895e-08 
-1.791945782716799e-11 
-2.880013325195194e-08 
9.986744167127192e-10 
2.443681664975446e-08 
-7.652772573984793e-08 
2.378760660394239e-09 
1.130146518427381e-06 
2.207296838372491e-05 
-1.946394266229171e-06 
-2.664528363076292e-07 
-2.319709439160002e-11 
-1.976326259920459e-11 
6.017471241906177e-09 
-4.585955117774769e-08 
-4.029256701664694e-12 
3.36489880355373e-05 
-1.118382465460542e-09 
1.121254998969331e-06 
1.316396131793812e-06 
8.061001144931132e-08 
9.938904312713342e-13 
1.119964543758775e-09 
1.880218893925267e-06 
-6.332916512796518e-06 
-5.318756728206062e-10 
-1.439639740304312e-07 
4.407906155066198e-09 
-8.217524797763583e-10 
-7.488232840410166e-11 
-2.502453019792882e-07 
4.30680164247973e-08 
-1.275067674500866e-08 
1.945464022591975e-06 
-1.63149065568354e-07 
-1.501200900822368e-07 
-3.719181381697191e-07 
-2.420354511223615e-11 
-6.140763379919018e-08 
8.73093362158869e-13 
7.752691116631182e-09 
-8.340418173523373e-12 
-6.962197969485403e-07 
8.514966070217285e-07 
-8.920545399176482e-09 
-1.52390098088106e-11 
-5.634635891131611e-13 
0.0001291969004423187 
1.686012721351478e-05 
0 
1.086983894756614e-06 
-3.169194218682542e-06 
3.4225789721954e-07 
-2.033823771049617e-06 
2.75168034317843e-07 
0 
0 
0 
-1.425977296970003e-05 
-1.946394266229171e-06 
0.003381019358132793 
2.39359969090503e-05 
0 
0 
-2.085032765912067e-06 
0.001291591174292608 
0.004286012984588843 
5.889912968715748e-05 
7.977861285122335e-05 
-0.00649660420170071 
-0.00724665690852465 
-0.0008100871651963426 
-0.0008236001517735378 
6.692435176730734e-06 
0.002059719264469162 
-4.838512025419997e-05 
-0.0005992391752037691 
-0.0001650302216591748 
0.005904192082175911 
0.00277666830996952 
-0.0004163820531179731 
0.005990843950462565 
-0.0006014280236774237 
-0.0006816173687761148 
